{"learner":{"attributes":{"scikit_learn":"{\"_estimator_type\": \"classifier\"}"},"feature_names":[],"feature_types":[],"gradient_booster":{"model":{"cats":{"enc":[],"feature_segments":[],"sorted_idx":[]},"gbtree_model_param":{"num_parallel_tree":"1","num_trees":"100"},"iteration_indptr":[0,1,2,3,4,5,6,7,8,9,10,11,12,13,14,15,16,17,18,19,20,21,22,23,24,25,26,27,28,29,30,31,32,33,34,35,36,37,38,39,40,41,42,43,44,45,46,47,48,49,50,51,52,53,54,55,56,57,58,59,60,61,62,63,64,65,66,67,68,69,70,71,72,73,74,75,76,77,78,79,80,81,82,83,84,85,86,87,88,89,90,91,92,93,94,95,96,97,98,99,100],"tree_info":[0,0,0,0,0,0,0,0,0,0,0,0,0,0,0,0,0,0,0,0,0,0,0,0,0,0,0,0,0,0,0,0,0,0,0,0,0,0,0,0,0,0,0,0,0,0,0,0,0,0,0,0,0,0,0,0,0,0,0,0,0,0,0,0,0,0,0,0,0,0,0,0,0,0,0,0,0,0,0,0,0,0,0,0,0,0,0,0,0,0,0,0,0,0,0,0,0,0,0,0],"trees":[{"base_weights":[2.9248787E-8,-1.5502101E0,1.6318002E0,-1.8498546E0,1.0530636E0,-8.2930976E-1,1.9260643E-1,-1.9389397E-1,-5.7682526E-1,2.1803109E-2,1.3283145E-1,-1.3383774E-1,2.1803109E-2,-1.1153128E-1,2.1803109E-2],"categories":[],"categories_nodes":[],"categories_segments":[],"categories_sizes":[],"default_left":[0,0,0,0,0,0,0,0,0,0,0,0,0,0,0],"id":0,"left_children":[1,3,5,7,9,11,-1,-1,13,-1,-1,-1,-1,-1,-1],"loss_changes":[1.7264507E2,2.9249626E1,2.5677185E1,2.482216E0,6.8721056E-1,2.5577447E0,0E0,0E0,1.7412287E0,0E0,0E0,0E0,0E0,0E0,0E0],"parents":[2147483647,0,0,1,1,2,2,3,3,4,4,5,5,8,8],"right_children":[2,4,6,8,10,12,-1,-1,14,-1,-1,-1,-1,-1,-1],"split_conditions":[5.206724E1,8.4943535E1,2.4137207E1,7.132582E1,3.6639244E1,7.0957825E1,1.9260643E-1,-1.9389397E-1,1.3455221E1,2.1803109E-2,1.3283145E-1,-1.3383774E-1,2.1803109E-2,-1.1153128E-1,2.1803109E-2],"split_indices":[0,1,1,1,0,0,0,0,0,0,0,0,0,0,0],"split_type":[0,0,0,0,0,0,0,0,0,0,0,0,0,0,0],"sum_hessian":[6.6249054E1,3.3999516E1,3.2249542E1,3.0749561E1,3.2499537E0,3.2499537E0,2.8999586E1,2.8249598E1,2.4999645E0,1.2499822E0,1.9999715E0,1.9999715E0,1.2499822E0,1.2499822E0,1.2499822E0],"tree_param":{"num_deleted":"0","num_feature":"5","num_nodes":"15","size_leaf_vector":"1"}},{"base_weights":[-6.6393404E-4,-1.4096503E0,1.4848427E0,-1.6874108E0,9.865818E-1,-7.743073E-1,1.7573962E-1,-1.7668961E-1,-5.453738E-1,1.6926944E-2,1.2702684E-1,-1.2777497E-1,2.4069685E-2,-1.0840297E-1,2.3568455E-2],"categories":[],"categories_nodes":[],"categories_segments":[],"categories_sizes":[],"default_left":[0,0,0,0,0,0,0,0,0,0,0,0,0,0,0],"id":1,"left_children":[1,3,5,7,9,11,-1,-1,13,-1,-1,-1,-1,-1,-1],"loss_changes":[1.416911E2,2.4788597E1,2.1651382E1,1.8960266E0,7.680502E-1,2.475082E0,0E0,0E0,1.7264825E0,0E0,0E0,0E0,0E0,0E0,0E0],"parents":[2147483647,0,0,1,1,2,2,3,3,4,4,5,5,8,8],"right_children":[2,4,6,8,10,12,-1,-1,14,-1,-1,-1,-1,-1,-1],"split_conditions":[5.206724E1,8.4943535E1,2.4137207E1,7.132582E1,7.60546E1,2.8439713E1,1.7573962E-1,-1.7668961E-1,3.9248474E1,1.6926944E-2,1.2702684E-1,-1.2777497E-1,2.4069685E-2,-1.0840297E-1,2.3568455E-2],"split_indices":[0,1,1,1,3,2,0,0,2,0,0,0,0,0,0],"split_type":[0,0,0,0,0,0,0,0,0,0,0,0,0,0,0],"sum_hessian":[6.5695694E1,3.3742435E1,3.1953259E1,3.0502525E1,3.23991E0,3.2417772E0,2.8711481E1,2.8006168E1,2.496358E0,1.2462095E0,1.9937005E0,1.9939271E0,1.2478501E0,1.2478685E0,1.2484893E0],"tree_param":{"num_deleted":"0","num_feature":"5","num_nodes":"15","size_leaf_vector":"1"}},{"base_weights":[-1.2559041E-3,-1.2995739E0,1.3706335E0,-1.5620703E0,9.2683166E-1,-7.2478145E-1,1.6285129E-1,-1.6357301E-1,-5.16205E-1,1.5996045E-2,1.1941663E-1,-1.2232188E-1,2.6156727E-2,-1.04059316E-1,2.3726761E-2],"categories":[],"categories_nodes":[],"categories_segments":[],"categories_sizes":[],"default_left":[0,0,0,0,0,0,0,0,0,0,0,0,0,0,0],"id":2,"left_children":[1,3,5,7,9,11,-1,-1,13,-1,-1,-1,-1,-1,-1],"loss_changes":[1.1803589E2,2.1345776E1,1.8592075E1,1.5306244E0,6.738131E-1,2.396123E0,0E0,0E0,1.6256399E0,0E0,0E0,0E0,0E0,0E0,0E0],"parents":[2147483647,0,0,1,1,2,2,3,3,4,4,5,5,8,8],"right_children":[2,4,6,8,10,12,-1,-1,14,-1,-1,-1,-1,-1,-1],"split_conditions":[5.206724E1,8.4943535E1,2.4137207E1,7.132582E1,7.60546E1,6.3925034E1,1.6285129E-1,-1.6357301E-1,3.7831802E1,1.5996045E-2,1.1941663E-1,-1.2232188E-1,2.6156727E-2,-1.04059316E-1,2.3726761E-2],"split_indices":[0,1,1,1,3,3,0,0,3,0,0,0,0,0,0],"split_type":[0,0,0,0,0,0,0,0,0,0,0,0,0,0,0],"sum_hessian":[6.4269485E1,3.3047222E1,3.1222261E1,2.9828758E1,3.2184634E0,3.2230043E0,2.7999256E1,2.7339266E1,2.4894927E0,1.2451117E0,1.9733517E0,1.9815218E0,1.2414825E0,1.2432059E0,1.2462867E0],"tree_param":{"num_deleted":"0","num_feature":"5","num_nodes":"15","size_leaf_vector":"1"}},{"base_weights":[-1.7806012E-3,-1.2107453E0,1.279016E0,-1.4623282E0,8.737823E-1,-6.798857E-1,1.5269142E-1,-1.5325074E-1,-4.8939672E-1,1.1779789E-2,1.1505647E-1,-1.1635917E-1,2.6378924E-2,-1.00151256E-1,2.3812896E-2],"categories":[],"categories_nodes":[],"categories_segments":[],"categories_sizes":[],"default_left":[0,0,0,0,0,0,0,0,0,0,0,0,0,0,0],"id":3,"left_children":[1,3,5,7,9,11,-1,-1,13,-1,-1,-1,-1,-1,-1],"loss_changes":[9.945566E1,1.8605293E1,1.6183743E1,1.2885818E0,7.399838E-1,2.22202E0,0E0,0E0,1.534266E0,0E0,0E0,0E0,0E0,0E0,0E0],"parents":[2147483647,0,0,1,1,2,2,3,3,4,4,5,5,8,8],"right_children":[2,4,6,8,10,12,-1,-1,14,-1,-1,-1,-1,-1,-1],"split_conditions":[5.206724E1,8.4943535E1,2.4137207E1,7.132582E1,3.6639244E1,4E0,1.5269142E-1,-1.5325074E-1,3.9248474E1,1.1779789E-2,1.1505647E-1,-1.1635917E-1,2.6378924E-2,-1.00151256E-1,2.3812896E-2],"split_indices":[0,1,1,1,0,4,0,0,2,0,0,0,0,0,0],"split_type":[0,0,0,0,0,0,0,0,0,0,0,0,0,0,0],"sum_hessian":[6.2229588E1,3.204062E1,3.0188967E1,2.8856407E1,3.1842117E0,3.195488E0,2.6993479E1,2.6378536E1,2.477872E0,1.2354327E0,1.9487789E0,1.9585419E0,1.2369461E0,1.233202E0,1.2446698E0],"tree_param":{"num_deleted":"0","num_feature":"5","num_nodes":"15","size_leaf_vector":"1"}},{"base_weights":[-2.2867732E-3,-1.1371031E0,1.2036772E0,-1.3628261E0,9.733056E-2,-6.3945335E-1,1.4448385E-1,-1.449228E-1,-4.43488E-1,-1.1106584E-1,2.638851E-2,-1.1485243E-1,6.1585695E-2],"categories":[],"categories_nodes":[],"categories_segments":[],"categories_sizes":[],"default_left":[0,0,0,0,0,0,0,0,0,0,0,0,0],"id":4,"left_children":[1,3,5,7,-1,9,-1,-1,11,-1,-1,-1,-1],"loss_changes":[8.454639E1,1.648777E1,1.4236942E1,1.6741982E0,0E0,2.0632582E0,0E0,0E0,3.6550803E0,0E0,0E0,0E0,0E0],"parents":[2147483647,0,0,1,1,2,2,3,3,5,5,8,8],"right_children":[2,4,6,8,-1,10,-1,-1,12,-1,-1,-1,-1],"split_conditions":[5.206724E1,8.767108E1,2.4137207E1,7.132582E1,9.733056E-2,2.8439713E1,1.4448385E-1,-1.449228E-1,1.6127178E1,-1.1106584E-1,2.638851E-2,-1.1485243E-1,6.1585695E-2],"split_indices":[0,1,1,1,0,2,0,0,0,0,0,0,0],"split_type":[0,0,0,0,0,0,0,0,0,0,0,0,0],"sum_hessian":[5.9778072E1,3.0826925E1,2.8951145E1,2.8168358E1,2.6585674E0,3.1586769E0,2.5792469E1,2.5221584E1,2.9467745E0,1.9250278E0,1.233649E0,1.7187167E0,1.2280579E0],"tree_param":{"num_deleted":"0","num_feature":"5","num_nodes":"13","size_leaf_vector":"1"}},{"base_weights":[-2.8375036E-3,-1.0753322E0,1.1403673E0,-1.2946687E0,9.1556534E-2,-6.0285676E-1,1.3771956E-1,-1.3725451E0,-3.377515E-1,-1.0725039E-1,2.7955607E-2,-1.4028339E-1,-4.6112806E-2,-8.050569E-2,3.125059E-2],"categories":[],"categories_nodes":[],"categories_segments":[],"categories_sizes":[],"default_left":[0,0,0,0,0,0,0,0,0,0,0,0,0,0,0],"id":5,"left_children":[1,3,5,7,-1,9,-1,11,13,-1,-1,-1,-1,-1,-1],"loss_changes":[7.240259E1,1.448954E1,1.2631397E1,1.6124191E0,0E0,2.004966E0,0E0,5.525589E-2,1.2917005E0,0E0,0E0,0E0,0E0,0E0,0E0],"parents":[2147483647,0,0,1,1,2,2,3,3,5,5,7,7,8,8],"right_children":[2,4,6,8,-1,10,-1,12,14,-1,-1,-1,-1,-1,-1],"split_conditions":[5.206724E1,8.767108E1,2.4137207E1,8.509971E1,9.1556534E-2,7.0957825E1,1.3771956E-1,9.267694E1,2.8644623E1,-1.0725039E-1,2.7955607E-2,-1.4028339E-1,-4.6112806E-2,-8.050569E-2,3.125059E-2],"split_indices":[0,1,1,3,0,0,0,2,0,0,0,0,0,0,0],"split_type":[0,0,0,0,0,0,0,0,0,0,0,0,0,0,0],"sum_hessian":[5.705188E1,2.9466927E1,2.7584953E1,2.6857727E1,2.6091998E0,3.1144981E0,2.4470455E1,2.4434814E1,2.4229107E0,1.8920627E0,1.2224355E0,2.3127064E1,1.3077519E0,1.271263E0,1.1516478E0],"tree_param":{"num_deleted":"0","num_feature":"5","num_nodes":"15","size_leaf_vector":"1"}},{"base_weights":[-4.1456753E-3,-1.3218376E-1,8.4397614E-1,-9.198236E-1,1.2586981E0,-1.2361463E-1,3.862035E-2,2.791421E-2,1.3221236E-1],"categories":[],"categories_nodes":[],"categories_segments":[],"categories_sizes":[],"default_left":[0,0,0,0,0,0,0,0,0],"id":6,"left_children":[1,-1,3,5,7,-1,-1,-1,-1],"loss_changes":[6.285036E1,0E0,2.6188461E1,3.4072866E0,1.3784294E0,0E0,0E0,0E0,0E0],"parents":[2147483647,0,0,2,2,3,3,4,4],"right_children":[2,-1,4,6,8,-1,-1,-1,-1],"split_conditions":[3.6065735E1,-1.3218376E-1,2.4137207E1,6.322025E1,4.168894E1,-1.2361463E-1,3.862035E-2,2.791421E-2,1.3221236E-1],"split_indices":[0,0,1,2,0,0,0,0,0],"split_type":[0,0,0,0,0,0,0,0,0],"sum_hessian":[5.424051E1,2.1021587E1,3.321892E1,6.0919824E0,2.7126938E1,4.9472528E0,1.1447295E0,1.9780831E0,2.5148855E1],"tree_param":{"num_deleted":"0","num_feature":"5","num_nodes":"9","size_leaf_vector":"1"}},{"base_weights":[-4.927408E-3,-1.2668651E-1,8.0374014E-1,-8.6901414E-1,1.2045583E0,-1.18060246E-1,3.648223E-2,2.6038086E-2,1.2697636E-1],"categories":[],"categories_nodes":[],"categories_segments":[],"categories_sizes":[],"default_left":[0,0,0,0,0,0,0,0,0],"id":7,"left_children":[1,-1,3,5,7,-1,-1,-1,-1],"loss_changes":[5.4470325E1,0E0,2.2860102E1,3.0717778E0,1.3109932E0,0E0,0E0,0E0,0E0],"parents":[2147483647,0,0,2,2,3,3,4,4],"right_children":[2,-1,4,6,8,-1,-1,-1,-1],"split_conditions":[3.6065735E1,-1.2668651E-1,2.4137207E1,6.322025E1,4.168894E1,-1.18060246E-1,3.648223E-2,2.6038086E-2,1.2697636E-1],"split_indices":[0,0,1,2,0,0,0,0,0],"split_type":[0,0,0,0,0,0,0,0,0],"sum_hessian":[5.137895E1,1.984458E1,3.1534369E1,5.869749E0,2.5664621E1,4.7207375E0,1.1490116E0,1.98047E0,2.368415E1],"tree_param":{"num_deleted":"0","num_feature":"5","num_nodes":"9","size_leaf_vector":"1"}},{"base_weights":[-5.7207607E-3,-9.3502814E-1,1.0077983E0,-1.150966E0,8.281108E-2,-4.6995372E-1,1.23075284E-1,-1.2453254E-1,-2.97144E-1,-9.228969E-2,3.1045903E-2,-9.017581E-2,5.4743636E-2],"categories":[],"categories_nodes":[],"categories_segments":[],"categories_sizes":[],"default_left":[0,0,0,0,0,0,0,0,0,0,0,0,0],"id":8,"left_children":[1,3,5,7,-1,9,-1,-1,11,-1,-1,-1,-1],"loss_changes":[4.757288E1,1.098377E1,8.539257E0,1.5546646E0,0E0,1.6620157E0,0E0,0E0,2.3783433E0,0E0,0E0,0E0,0E0],"parents":[2147483647,0,0,1,1,2,2,3,3,5,5,8,8],"right_children":[2,4,6,8,-1,10,-1,-1,12,-1,-1,-1,-1],"split_conditions":[5.206724E1,8.767108E1,2.4137207E1,7.132582E1,8.281108E-2,4E0,1.23075284E-1,-1.2453254E-1,1.6127178E1,-9.228969E-2,3.1045903E-2,-9.017581E-2,5.4743636E-2],"split_indices":[0,1,1,1,0,4,0,0,0,0,0,0,0],"split_type":[0,0,0,0,0,0,0,0,0,0,0,0,0],"sum_hessian":[4.850845E1,2.5345924E1,2.3162525E1,2.2889742E1,2.4561822E0,2.8912632E0,2.0271263E1,2.0198944E1,2.6907988E0,1.7139369E0,1.1773262E0,1.5287237E0,1.1620749E0],"tree_param":{"num_deleted":"0","num_feature":"5","num_nodes":"13","size_leaf_vector":"1"}},{"base_weights":[-5.827178E-3,-1.1842479E-1,7.433318E-1,-7.834824E-1,1.1244627E0,-1.0966104E-1,3.6153354E-2,2.523343E-2,1.1894405E-1],"categories":[],"categories_nodes":[],"categories_segments":[],"categories_sizes":[],"default_left":[0,0,0,0,0,0,0,0,0],"id":9,"left_children":[1,-1,3,5,7,-1,-1,-1,-1],"loss_changes":[4.2032017E1,0E0,1.7821472E1,2.6927729E0,1.0433121E0,0E0,0E0,0E0,0E0],"parents":[2147483647,0,0,2,2,3,3,4,4],"right_children":[2,-1,4,6,8,-1,-1,-1,-1],"split_conditions":[3.6065735E1,-1.1842479E-1,2.4137207E1,6.322025E1,4.168894E1,-1.0966104E-1,3.6153354E-2,2.523343E-2,1.1894405E-1],"split_indices":[0,0,1,2,0,0,0,0,0],"split_type":[0,0,0,0,0,0,0,0,0],"sum_hessian":[4.561372E1,1.7502176E1,2.8111544E1,5.4046774E0,2.2706867E1,4.2772503E0,1.1274267E0,1.9130752E0,2.079379E1],"tree_param":{"num_deleted":"0","num_feature":"5","num_nodes":"9","size_leaf_vector":"1"}},{"base_weights":[-6.5880558E-3,-1.14577904E-1,7.1345353E-1,-7.450566E-1,1.0851716E0,-1.05622105E-1,3.4189865E-2,2.3568014E-2,1.1533103E-1],"categories":[],"categories_nodes":[],"categories_segments":[],"categories_sizes":[],"default_left":[0,0,0,0,0,0,0,0,0],"id":10,"left_children":[1,-1,3,5,7,-1,-1,-1,-1],"loss_changes":[3.680058E1,0E0,1.571501E1,2.4503558E0,1.0200157E0,0E0,0E0,0E0,0E0],"parents":[2147483647,0,0,2,2,3,3,4,4],"right_children":[2,-1,4,6,8,-1,-1,-1,-1],"split_conditions":[3.6065735E1,-1.14577904E-1,2.4137207E1,6.322025E1,4.168894E1,-1.05622105E-1,3.4189865E-2,2.3568014E-2,1.1533103E-1],"split_indices":[0,0,1,2,0,0,0,0,0],"split_type":[0,0,0,0,0,0,0,0,0],"sum_hessian":[4.2867683E1,1.6372765E1,2.6494919E1,5.177115E0,2.1317804E1,4.046883E0,1.130232E0,1.9140441E0,1.9403759E1],"tree_param":{"num_deleted":"0","num_feature":"5","num_nodes":"9","size_leaf_vector":"1"}},{"base_weights":[-7.3843673E-3,-8.360097E-1,9.178491E-1,-1.0567815E0,7.661022E-2,-5.878104E-2,1.0952222E0,-1.15632795E-1,-2.3644416E-1,2.2627447E-2,1.13380514E-1,-7.767104E-2,4.8363004E-2],"categories":[],"categories_nodes":[],"categories_segments":[],"categories_sizes":[],"default_left":[0,0,0,0,0,0,0,0,0,0,0,0,0],"id":11,"left_children":[1,3,5,7,-1,-1,9,-1,11,-1,-1,-1,-1],"loss_changes":[3.2374825E1,8.687317E0,5.9729424E0,1.3594227E0,0E0,0E0,3.536625E-1,0E0,1.7064527E0,0E0,0E0,0E0,0E0],"parents":[2147483647,0,0,1,1,2,2,3,3,6,6,8,8],"right_children":[2,4,6,8,-1,-1,10,-1,12,-1,-1,-1,-1],"split_conditions":[5.206724E1,8.767108E1,1.1585672E1,7.132582E1,7.661022E-2,-5.878104E-2,2.416389E1,-1.15632795E-1,1.6127178E1,2.2627447E-2,1.13380514E-1,-7.767104E-2,4.8363004E-2],"split_indices":[0,1,1,1,0,0,1,0,0,0,0,0,0],"split_type":[0,0,0,0,0,0,0,0,0,0,0,0,0],"sum_hessian":[4.0226883E1,2.1272228E1,1.8954657E1,1.8995079E1,2.2771494E0,1.7537434E0,1.7200912E1,1.6574247E1,2.420832E0,1.0231271E0,1.6177786E1,1.3381642E0,1.0826677E0],"tree_param":{"num_deleted":"0","num_feature":"5","num_nodes":"13","size_leaf_vector":"1"}},{"base_weights":[-6.914765E-3,-1.0861946E0,6.6747206E-1,-1.131528E-1,-3.3746086E-2,-6.7519283E-1,1.0263995E0,-9.959627E-2,3.4969594E-2,2.9919848E-1,1.1199687E-1,-3.7645854E-2,7.209176E-2],"categories":[],"categories_nodes":[],"categories_segments":[],"categories_sizes":[],"default_left":[0,0,0,0,0,0,0,0,0,0,0,0,0],"id":12,"left_children":[1,3,5,-1,-1,7,9,-1,-1,11,-1,-1,-1],"loss_changes":[2.8869762E1,1.3580322E-1,1.2460249E1,0E0,0E0,2.2398388E0,1.0028973E0,0E0,0E0,1.2989452E0,0E0,0E0,0E0],"parents":[2147483647,0,0,1,1,2,2,5,5,6,6,9,9],"right_children":[2,4,6,-1,-1,8,10,-1,-1,12,-1,-1,-1],"split_conditions":[3.6065735E1,3.0595663E1,2.4137207E1,-1.131528E-1,-3.3746086E-2,6.322025E1,2.416996E1,-9.959627E-2,3.4969594E-2,6.524331E1,1.1199687E-1,-3.7645854E-2,7.209176E-2],"split_indices":[0,0,1,0,0,2,3,0,0,0,0,0,0],"split_type":[0,0,0,0,0,0,0,0,0,0,0,0,0],"sum_hessian":[3.7668232E1,1.4250798E1,2.3417433E1,1.29551525E1,1.295646E0,4.7537203E0,1.8663713E1,3.6420536E0,1.1116669E0,2.6062284E0,1.6057486E1,1.0428119E0,1.5634164E0],"tree_param":{"num_deleted":"0","num_feature":"5","num_nodes":"13","size_leaf_vector":"1"}},{"base_weights":[-8.380632E-3,-7.8780574E-1,8.695501E-1,-1.0247332E0,6.0775495E-1,-5.2461054E-2,1.0459692E0,-1.1090618E-1,-2.1668429E-2,7.336246E-4,8.476522E-2,2.7544305E-2,1.0852786E-1],"categories":[],"categories_nodes":[],"categories_segments":[],"categories_sizes":[],"default_left":[0,0,0,0,0,0,0,0,0,0,0,0,0],"id":13,"left_children":[1,3,5,7,9,-1,11,-1,-1,-1,-1,-1,-1],"loss_changes":[2.551439E1,7.1516123E0,4.862727E0,9.3527603E-1,4.9697363E-1,0E0,1.8276787E-1,0E0,0E0,0E0,0E0,0E0,0E0],"parents":[2147483647,0,0,1,1,2,2,3,3,4,4,6,6],"right_children":[2,4,6,8,10,-1,12,-1,-1,-1,-1,-1,-1],"split_conditions":[5.206724E1,8.4943535E1,1.1585672E1,7.132582E1,7.60546E1,-5.2461054E-2,2.460666E1,-1.1090618E-1,-2.1668429E-2,7.336246E-4,8.476522E-2,2.7544305E-2,1.0852786E-1],"split_indices":[0,1,1,1,3,0,1,0,0,0,0,0,0],"split_type":[0,0,0,0,0,0,0,0,0,0,0,0,0],"sum_hessian":[3.528531E1,1.8745632E1,1.6539677E1,1.6252182E1,2.4934494E0,1.6361626E0,1.4903513E1,1.4379052E1,1.8731292E0,1.0060564E0,1.4873931E0,1.1120775E0,1.3791436E1],"tree_param":{"num_deleted":"0","num_feature":"5","num_nodes":"13","size_leaf_vector":"1"}},{"base_weights":[-7.0067737E-3,-1.0376637E0,6.304474E-1,-1.0863781E-1,-2.9342283E-2,-6.1376834E-1,9.7981787E-1,-9.46173E-2,3.6345594E-2,2.7106497E-1,1.073122E-1,-2.7473984E-2,6.483012E-2],"categories":[],"categories_nodes":[],"categories_segments":[],"categories_sizes":[],"default_left":[0,0,0,0,0,0,0,0,0,0,0,0,0],"id":14,"left_children":[1,3,5,-1,-1,7,9,-1,-1,11,-1,-1,-1],"loss_changes":[2.3023449E1,1.6665459E-1,1.0016276E1,0E0,0E0,2.0860467E0,8.528614E-1,0E0,0E0,8.6786413E-1,0E0,0E0,0E0],"parents":[2147483647,0,0,1,1,2,2,5,5,6,6,9,9],"right_children":[2,4,6,-1,-1,8,10,-1,-1,12,-1,-1,-1],"split_conditions":[3.6065735E1,3.0595663E1,2.4137207E1,-1.0863781E-1,-2.9342283E-2,7.0957825E1,2.416996E1,-9.46173E-2,3.6345594E-2,7.0540634E1,1.073122E-1,-2.7473984E-2,6.483012E-2],"split_indices":[0,0,1,0,0,0,3,0,0,1,0,0,0],"split_type":[0,0,0,0,0,0,0,0,0,0,0,0,0],"sum_hessian":[3.3047756E1,1.2388995E1,2.0658762E1,1.1196418E1,1.1925774E0,4.3632183E0,1.6295544E1,3.2794743E0,1.083744E0,2.3499706E0,1.3945573E1,1.0714478E0,1.2785227E0],"tree_param":{"num_deleted":"0","num_feature":"5","num_nodes":"13","size_leaf_vector":"1"}},{"base_weights":[-8.312535E-3,-1.0122483E0,6.088097E-1,-1.063206E-1,-2.8006628E-2,-5.8580375E-1,9.519773E-1,-9.209526E-2,3.619134E-2,1.6743068E-2,1.03195764E-1],"categories":[],"categories_nodes":[],"categories_segments":[],"categories_sizes":[],"default_left":[0,0,0,0,0,0,0,0,0,0,0],"id":15,"left_children":[1,3,5,-1,-1,7,9,-1,-1,-1,-1],"loss_changes":[2.0403994E1,1.6989326E-1,8.922522E0,0E0,0E0,1.9762156E0,8.4574795E-1,0E0,0E0,0E0,0E0],"parents":[2147483647,0,0,1,1,2,2,5,5,6,6],"right_children":[2,4,6,-1,-1,8,10,-1,-1,-1,-1],"split_conditions":[3.6065735E1,3.0595663E1,2.4137207E1,-1.063206E-1,-2.8006628E-2,6.322025E1,4.168894E1,-9.209526E-2,3.619134E-2,1.6743068E-2,1.03195764E-1],"split_indices":[0,0,1,0,0,2,0,0,0,0,0],"split_type":[0,0,0,0,0,0,0,0,0,0,0],"sum_hessian":[3.0938814E1,1.1534384E1,1.940443E1,1.0361171E1,1.1732132E0,4.1724634E0,1.5231967E1,3.10327E0,1.0691935E0,1.6953423E0,1.3536625E1],"tree_param":{"num_deleted":"0","num_feature":"5","num_nodes":"11","size_leaf_vector":"1"}},{"base_weights":[-1.0284829E-2,-9.8810303E-1,5.870071E-1,-1.0415115E-1,-2.6732279E-2,-5.593341E-1,9.2392814E-1,-8.9522116E-2,3.5144445E-2,2.3496692E-1,1.0335139E-1,-3.4814604E-2,6.42623E-2],"categories":[],"categories_nodes":[],"categories_segments":[],"categories_sizes":[],"default_left":[0,0,0,0,0,0,0,0,0,0,0,0,0],"id":16,"left_children":[1,3,5,-1,-1,7,9,-1,-1,11,-1,-1,-1],"loss_changes":[1.8080193E1,1.7333412E-1,7.943409E0,0E0,0E0,1.8413601E0,9.0763474E-1,0E0,0E0,1.0284634E0,0E0,0E0,0E0],"parents":[2147483647,0,0,1,1,2,2,5,5,6,6,9,9],"right_children":[2,4,6,-1,-1,8,10,-1,-1,12,-1,-1,-1],"split_conditions":[3.6065735E1,3.0595663E1,2.4137207E1,-1.0415115E-1,-2.6732279E-2,7.0957825E1,4.687593E1,-8.9522116E-2,3.5144445E-2,6.115436E1,1.0335139E-1,-3.4814604E-2,6.42623E-2],"split_indices":[0,0,1,0,0,0,1,0,0,0,0,0,0],"split_type":[0,0,0,0,0,0,0,0,0,0,0,0,0],"sum_hessian":[2.8963839E1,1.0735159E1,1.8228682E1,9.580298E0,1.1548603E0,3.9906716E0,1.4238009E1,2.9279509E0,1.0627208E0,2.3853781E0,1.1852632E1,1.0415385E0,1.3438396E0],"tree_param":{"num_deleted":"0","num_feature":"5","num_nodes":"13","size_leaf_vector":"1"}},{"base_weights":[-1.1709325E-2,-7.082494E-1,7.894127E-1,-1.0412278E-1,2.776379E-1,-4.3719422E-2,9.707545E-1,-7.527443E-2,9.406912E-2,3.1624712E-2,1.0260335E-1],"categories":[],"categories_nodes":[],"categories_segments":[],"categories_sizes":[],"default_left":[0,0,0,0,0,0,0,0,0,0,0],"id":17,"left_children":[1,3,5,-1,7,-1,9,-1,-1,-1,-1],"loss_changes":[1.6247711E1,5.3991737E0,3.43814E0,0E0,3.9324963E0,0E0,1.13820076E-1,0E0,0E0,0E0,0E0],"parents":[2147483647,0,0,1,1,2,2,4,4,6,6],"right_children":[2,4,6,-1,8,-1,10,-1,-1,-1,-1],"split_conditions":[5.206724E1,7.132582E1,1.1585672E1,-1.0412278E-1,2.2559286E1,-4.3719422E-2,2.2517767E1,-7.527443E-2,9.406912E-2,3.1624712E-2,1.0260335E-1],"split_indices":[0,1,1,0,0,0,3,0,0,0,0],"split_type":[0,0,0,0,0,0,0,0,0,0,0],"sum_hessian":[2.7115105E1,1.456629E1,1.2548815E1,1.0846729E1,3.7195606E0,1.4345498E0,1.1114265E1,1.4034052E0,2.3161554E0,1.3890252E0,9.72524E0],"tree_param":{"num_deleted":"0","num_feature":"5","num_nodes":"11","size_leaf_vector":"1"}},{"base_weights":[-1.1161275E-2,-6.904757E-1,7.654777E-1,-1.0221275E-1,2.6415214E-1,-2.327971E-1,9.956478E-2,-7.27903E-2,9.073631E-2,-6.675496E-2,3.5260864E-2],"categories":[],"categories_nodes":[],"categories_segments":[],"categories_sizes":[],"default_left":[0,0,0,0,0,0,0,0,0,0,0],"id":18,"left_children":[1,3,5,-1,7,9,-1,-1,-1,-1,-1],"loss_changes":[1.4402616E1,4.8776717E0,3.1600204E0,0E0,3.5619586E0,1.0493739E0,0E0,0E0,0E0,0E0,0E0],"parents":[2147483647,0,0,1,1,2,2,4,4,5,5],"right_children":[2,4,6,-1,8,10,-1,-1,-1,-1,-1],"split_conditions":[5.206724E1,7.132582E1,2.4137207E1,-1.0221275E-1,2.2559286E1,2.8439713E1,9.956478E-2,-7.27903E-2,9.073631E-2,-6.675496E-2,3.5260864E-2],"split_indices":[0,1,1,0,0,2,0,0,0,0,0],"split_type":[0,0,0,0,0,0,0,0,0,0,0],"sum_hessian":[2.5297466E1,1.3553429E1,1.1744038E1,1.0006363E1,3.5470662E0,2.1983073E0,9.54573E0,1.3434019E0,2.2036643E0,1.180952E0,1.0173553E0],"tree_param":{"num_deleted":"0","num_feature":"5","num_nodes":"11","size_leaf_vector":"1"}},{"base_weights":[-1.146479E-2,-9.2617315E-1,5.374983E-1,-9.853515E-2,-2.1044476E-2,-4.945637E-1,8.669537E-1,-8.3140925E-2,3.2826502E-2,1.704947E-2,9.7194105E-2],"categories":[],"categories_nodes":[],"categories_segments":[],"categories_sizes":[],"default_left":[0,0,0,0,0,0,0,0,0,0,0],"id":19,"left_children":[1,3,5,-1,-1,7,9,-1,-1,-1,-1],"loss_changes":[1.28251E1,1.9818115E-1,5.860464E0,0E0,0E0,1.5207984E0,7.462683E-1,0E0,0E0,0E0,0E0],"parents":[2147483647,0,0,1,1,2,2,5,5,6,6],"right_children":[2,4,6,-1,-1,8,10,-1,-1,-1,-1],"split_conditions":[3.6065735E1,3.0595663E1,2.4137207E1,-9.853515E-2,-2.1044476E-2,7.0957825E1,2.416996E1,-8.3140925E-2,3.2826502E-2,1.704947E-2,9.7194105E-2],"split_indices":[0,0,1,0,0,0,3,0,0,0,0],"split_type":[0,0,0,0,0,0,0,0,0,0,0],"sum_hessian":[2.3549442E1,8.574714E0,1.4974728E1,7.5719347E0,1.0027795E0,3.5022662E0,1.1472462E1,2.4775789E0,1.0246872E0,1.8465939E0,9.625868E0],"tree_param":{"num_deleted":"0","num_feature":"5","num_nodes":"11","size_leaf_vector":"1"}},{"base_weights":[-1.339907E-2,-6.5055853E-1,7.456804E-1,-9.811276E-2,2.648904E-1,-1.6954867E-2,9.635897E-2,-6.7327164E-2,8.570715E-2],"categories":[],"categories_nodes":[],"categories_segments":[],"categories_sizes":[],"default_left":[0,0,0,0,0,0,0,0,0],"id":20,"left_children":[1,3,5,-1,7,-1,-1,-1,-1],"loss_changes":[1.1657982E1,4.222121E0,2.3587394E0,0E0,2.944302E0,0E0,0E0,0E0,0E0],"parents":[2147483647,0,0,1,1,2,2,4,4],"right_children":[2,4,6,-1,8,-1,-1,-1,-1],"split_conditions":[5.354348E1,7.132582E1,2.4137207E1,-9.811276E-2,2.2559286E1,-1.6954867E-2,9.635897E-2,-6.7327164E-2,8.570715E-2],"split_indices":[0,1,1,0,0,0,0,0,0],"split_type":[0,0,0,0,0,0,0,0,0],"sum_hessian":[2.2100933E1,1.2093121E1,1.00078125E1,8.832099E0,3.261021E0,1.9672408E0,8.040571E0,1.2088951E0,2.052126E0],"tree_param":{"num_deleted":"0","num_feature":"5","num_nodes":"9","size_leaf_vector":"1"}},{"base_weights":[-1.2875417E-2,-6.484747E-1,7.079856E-1,-9.762434E-2,2.398104E-1,-3.7886817E-2,9.0117574E-1,-6.5246E-2,8.239681E-2,2.511467E-2,9.650045E-2],"categories":[],"categories_nodes":[],"categories_segments":[],"categories_sizes":[],"default_left":[0,0,0,0,0,0,0,0,0,0,0],"id":21,"left_children":[1,3,5,-1,7,-1,9,-1,-1,-1,-1],"loss_changes":[1.0370037E1,3.7329836E0,2.5700026E0,0E0,2.6443434E0,0E0,1.438322E-1,0E0,0E0,0E0,0E0],"parents":[2147483647,0,0,1,1,2,2,4,4,6,6],"right_children":[2,4,6,-1,8,-1,10,-1,-1,-1,-1],"split_conditions":[5.206724E1,7.132582E1,1.1585672E1,-9.762434E-2,2.2559286E1,-3.7886817E-2,2.2517767E1,-6.5246E-2,8.239681E-2,2.511467E-2,9.650045E-2],"split_indices":[0,1,1,0,0,0,3,0,0,0,0],"split_type":[0,0,0,0,0,0,0,0,0,0,0],"sum_hessian":[2.0631136E1,1.1017328E1,9.613808E0,7.975445E0,3.0418832E0,1.3059045E0,8.307903E0,1.1572777E0,1.8846055E0,1.1840714E0,7.123832E0],"tree_param":{"num_deleted":"0","num_feature":"5","num_nodes":"11","size_leaf_vector":"1"}},{"base_weights":[-1.2291001E-2,-7.422496E-1,5.8201474E-1,-9.109539E-2,2.7600562E-2,-3.639665E-1,9.109547E-2,-7.436814E-2,3.382489E-2],"categories":[],"categories_nodes":[],"categories_segments":[],"categories_sizes":[],"default_left":[0,0,0,0,0,0,0,0,0],"id":22,"left_children":[1,3,5,-1,-1,7,-1,-1,-1],"loss_changes":[9.227722E0,1.8900084E0,3.9836183E0,0E0,0E0,1.2494913E0,0E0,0E0,0E0],"parents":[2147483647,0,0,1,1,2,2,5,5],"right_children":[2,4,6,-1,-1,8,-1,-1,-1],"split_conditions":[4.186083E1,8.4943535E1,2.4137207E1,-9.109539E-2,2.7600562E-2,4.5826202E1,9.109547E-2,-7.436814E-2,3.382489E-2],"split_indices":[0,1,1,0,0,2,0,0,0],"split_type":[0,0,0,0,0,0,0,0,0],"sum_hessian":[1.9275114E1,8.538603E0,1.0736511E1,7.415399E0,1.123204E0,2.7426324E0,7.993879E0,1.7417505E0,1.0008819E0],"tree_param":{"num_deleted":"0","num_feature":"5","num_nodes":"9","size_leaf_vector":"1"}},{"base_weights":[-1.2474495E-2,-5.841883E-1,7.104299E-1,-9.361E-2,2.2860281E-1,-3.0639831E-2,8.9884736E-2,-6.498507E-2,8.0870524E-2],"categories":[],"categories_nodes":[],"categories_segments":[],"categories_sizes":[],"default_left":[0,0,0,0,0,0,0,0,0],"id":23,"left_children":[1,3,5,-1,7,-1,-1,-1,-1],"loss_changes":[8.297413E0,3.4170969E0,1.9754882E0,0E0,2.6593595E0,0E0,0E0,0E0,0E0],"parents":[2147483647,0,0,1,1,2,2,4,4],"right_children":[2,4,6,-1,8,-1,-1,-1,-1],"split_conditions":[5.5703217E1,6.375887E1,1.1585672E1,-9.361E-2,2.3674486E1,-3.0639831E-2,8.9884736E-2,-6.498507E-2,8.0870524E-2],"split_indices":[0,1,1,0,0,0,0,0,0],"split_type":[0,0,0,0,0,0,0,0,0],"sum_hessian":[1.8072088E1,1.0198457E1,7.873631E0,7.0111504E0,3.1873066E0,1.1330042E0,6.740627E0,1.2198477E0,1.967459E0],"tree_param":{"num_deleted":"0","num_feature":"5","num_nodes":"9","size_leaf_vector":"1"}},{"base_weights":[-1.30533995E-2,-8.3619237E-1,4.6599394E-1,-9.015619E-2,-2.3093378E-2,-2.44915E-1,9.018936E-2,-6.7497075E-2,6.2257785E-2],"categories":[],"categories_nodes":[],"categories_segments":[],"categories_sizes":[],"default_left":[0,0,0,0,0,0,0,0,0],"id":24,"left_children":[1,3,5,-1,-1,7,-1,-1,-1],"loss_changes":[7.445195E0,6.639242E-2,3.9248044E0,0E0,0E0,2.4085295E0,0E0,0E0,0E0],"parents":[2147483647,0,0,1,1,2,2,5,5],"right_children":[2,4,6,-1,-1,8,-1,-1,-1],"split_conditions":[3.6065735E1,7.5609314E1,4.687593E1,-9.015619E-2,-2.3093378E-2,6.678491E1,9.018936E-2,-6.7497075E-2,6.2257785E-2],"split_indices":[0,3,1,0,0,2,0,0,0],"split_type":[0,0,0,0,0,0,0,0,0],"sum_hessian":[1.6892801E1,5.9402456E0,1.0952556E1,4.91939E0,1.0208552E0,4.32958E0,6.6229753E0,3.0429702E0,1.2866096E0],"tree_param":{"num_deleted":"0","num_feature":"5","num_nodes":"9","size_leaf_vector":"1"}},{"base_weights":[-1.3979108E-2,-5.9374386E-1,6.381272E-1,-9.19347E-2,2.2067921E-1,-1.7194882E-2,8.937425E-2,-4.112818E-2,7.067966E-2],"categories":[],"categories_nodes":[],"categories_segments":[],"categories_sizes":[],"default_left":[0,0,0,0,0,0,0,0,0],"id":25,"left_children":[1,3,5,-1,7,-1,-1,-1,-1],"loss_changes":[6.765368E0,2.711531E0,1.8997121E0,0E0,1.3684869E0,0E0,0E0,0E0,0E0],"parents":[2147483647,0,0,1,1,2,2,4,4],"right_children":[2,4,6,-1,8,-1,-1,-1,-1],"split_conditions":[5.206724E1,7.132582E1,2.4137207E1,-9.19347E-2,7.2837494E1,-1.7194882E-2,8.937425E-2,-4.112818E-2,7.067966E-2],"split_indices":[0,1,1,0,3,0,0,0,0],"split_type":[0,0,0,0,0,0,0,0,0],"sum_hessian":[1.589241E1,8.460222E0,7.4321876E0,5.9518595E0,2.5083628E0,1.8611838E0,5.571004E0,1.1575165E0,1.3508463E0],"tree_param":{"num_deleted":"0","num_feature":"5","num_nodes":"9","size_leaf_vector":"1"}},{"base_weights":[-1.2752026E-2,-8.7574445E-2,4.0267482E-1,-2.915084E-1,8.909661E-2,-6.655205E-1,6.7392185E-2,-8.040833E-2,-1.0959129E-2],"categories":[],"categories_nodes":[],"categories_segments":[],"categories_sizes":[],"default_left":[0,0,0,0,0,0,0,0,0],"id":26,"left_children":[1,-1,3,5,-1,7,-1,-1,-1],"loss_changes":[6.0561824E0,0E0,4.1321597E0,2.424008E0,0E0,2.5439847E-1,0E0,0E0,0E0],"parents":[2147483647,0,0,2,2,3,3,5,5],"right_children":[2,-1,4,6,-1,8,-1,-1,-1],"split_conditions":[3.0595663E1,-8.7574445E-2,4.6932693E1,8.379802E1,8.909661E-2,4.8060764E1,6.7392185E-2,-8.040833E-2,-1.0959129E-2],"split_indices":[0,0,1,0,0,2,0,0,0],"split_type":[0,0,0,0,0,0,0,0,0],"sum_hessian":[1.4909007E1,4.4846663E0,1.042434E1,4.4710455E0,5.9532948E0,3.4465032E0,1.0245422E0,2.4015505E0,1.0449526E0],"tree_param":{"num_deleted":"0","num_feature":"5","num_nodes":"9","size_leaf_vector":"1"}},{"base_weights":[-1.3718613E-2,-5.415527E-1,6.443863E-1,-8.798928E-2,2.065237E-1,-2.5689086E-2,8.37164E-2,-3.5753947E-2,6.4652026E-2],"categories":[],"categories_nodes":[],"categories_segments":[],"categories_sizes":[],"default_left":[0,0,0,0,0,0,0,0,0],"id":27,"left_children":[1,3,5,-1,7,-1,-1,-1,-1],"loss_changes":[5.550889E0,2.4225535E0,1.4524333E0,0E0,1.1164602E0,0E0,0E0,0E0,0E0],"parents":[2147483647,0,0,1,1,2,2,4,4],"right_children":[2,4,6,-1,8,-1,-1,-1,-1],"split_conditions":[5.5703217E1,6.375887E1,1.1585672E1,-8.798928E-2,3.1033468E1,-2.5689086E-2,8.37164E-2,-3.5753947E-2,6.4652026E-2],"split_indices":[0,1,1,0,0,0,0,0,0],"split_type":[0,0,0,0,0,0,0,0,0],"sum_hessian":[1.3975145E1,7.853409E0,6.121736E0,5.2863092E0,2.5670993E0,1.0200776E0,5.101659E0,1.2070715E0,1.3600279E0],"tree_param":{"num_deleted":"0","num_feature":"5","num_nodes":"9","size_leaf_vector":"1"}},{"base_weights":[-1.322228E-2,-8.4494025E-2,3.835586E-1,-2.727012E-1,8.597292E-2,-7.200279E-2,4.8075628E-2],"categories":[],"categories_nodes":[],"categories_segments":[],"categories_sizes":[],"default_left":[0,0,0,0,0,0,0],"id":28,"left_children":[1,-1,3,5,-1,-1,-1],"loss_changes":[4.9904447E0,0E0,3.4408903E0,2.0562208E0,0E0,0E0,0E0],"parents":[2147483647,0,0,2,2,3,3],"right_children":[2,-1,4,6,-1,-1,-1],"split_conditions":[3.0595663E1,-8.4494025E-2,4.6932693E1,7.0957825E1,8.597292E-2,-7.200279E-2,4.8075628E-2],"split_indices":[0,0,1,0,0,0,0],"split_type":[0,0,0,0,0,0,0],"sum_hessian":[1.3140067E1,3.87918E0,9.260887E0,4.073744E0,5.1871433E0,2.5839968E0,1.489747E0],"tree_param":{"num_deleted":"0","num_feature":"5","num_nodes":"7","size_leaf_vector":"1"}},{"base_weights":[-1.4333591E-2,-8.279683E-2,3.709307E-1,-2.5900152E-1,8.383333E-2,-6.9451645E-2,4.5750156E-2],"categories":[],"categories_nodes":[],"categories_segments":[],"categories_sizes":[],"default_left":[0,0,0,0,0,0,0],"id":29,"left_children":[1,-1,3,5,-1,-1,-1],"loss_changes":[4.4903517E0,0E0,3.0870526E0,1.8517005E0,0E0,0E0,0E0],"parents":[2147483647,0,0,2,2,3,3],"right_children":[2,-1,4,6,-1,-1,-1],"split_conditions":[3.0595663E1,-8.279683E-2,4.6932693E1,7.0957825E1,8.383333E-2,-6.9451645E-2,4.5750156E-2],"split_indices":[0,0,1,0,0,0,0],"split_type":[0,0,0,0,0,0,0],"sum_hessian":[1.2345162E1,3.5978398E0,8.747323E0,3.9157803E0,4.8315425E0,2.4545238E0,1.4612566E0],"tree_param":{"num_deleted":"0","num_feature":"5","num_nodes":"7","size_leaf_vector":"1"}},{"base_weights":[-1.5487615E-2,-5.121506E-1,5.892071E-1,-8.3706684E-2,1.8936265E-1,-7.718302E-3,8.1526734E-2,-3.0605543E-2,6.0390253E-2],"categories":[],"categories_nodes":[],"categories_segments":[],"categories_sizes":[],"default_left":[0,0,0,0,0,0,0,0,0],"id":30,"left_children":[1,3,5,-1,7,-1,-1,-1,-1],"loss_changes":[4.091285E0,1.8595201E0,9.901581E-1,0E0,8.374647E-1,0E0,0E0,0E0,0E0],"parents":[2147483647,0,0,1,1,2,2,4,4],"right_children":[2,4,6,-1,8,-1,-1,-1,-1],"split_conditions":[5.5703217E1,6.375887E1,1.6590687E1,-8.3706684E-2,7.2837494E1,-7.718302E-3,8.1526734E-2,-3.0605543E-2,6.0390253E-2],"split_indices":[0,1,1,0,3,0,0,0,0],"split_type":[0,0,0,0,0,0,0,0,0],"sum_hessian":[1.1617883E1,6.462765E0,5.155117E0,4.284914E0,2.1778514E0,1.4726243E0,3.682493E0,1.1113597E0,1.0664917E0],"tree_param":{"num_deleted":"0","num_feature":"5","num_nodes":"9","size_leaf_vector":"1"}},{"base_weights":[-1.3061757E-2,-7.9726376E-2,3.543283E-1,-2.363291E-1,8.055358E-2,-6.576255E-2,4.271461E-2],"categories":[],"categories_nodes":[],"categories_segments":[],"categories_sizes":[],"default_left":[0,0,0,0,0,0,0],"id":31,"left_children":[1,-1,3,5,-1,-1,-1],"loss_changes":[3.7348435E0,0E0,2.549586E0,1.5686179E0,0E0,0E0,0E0],"parents":[2147483647,0,0,2,2,3,3],"right_children":[2,-1,4,6,-1,-1,-1],"split_conditions":[3.0595663E1,-7.9726376E-2,4.6932693E1,7.0957825E1,8.055358E-2,-6.576255E-2,4.271461E-2],"split_indices":[0,0,1,0,0,0,0],"split_type":[0,0,0,0,0,0,0],"sum_hessian":[1.0982833E1,3.1305444E0,7.8522887E0,3.6068876E0,4.245401E0,2.211461E0,1.3954264E0],"tree_param":{"num_deleted":"0","num_feature":"5","num_nodes":"7","size_leaf_vector":"1"}},{"base_weights":[-1.4393652E-2,-6.0137516E-1,4.5057508E-1,-8.176421E-2,1.2871945E-2,-2.4557734E-2,7.749386E-2],"categories":[],"categories_nodes":[],"categories_segments":[],"categories_sizes":[],"default_left":[0,0,0,0,0,0,0],"id":32,"left_children":[1,3,5,-1,-1,-1,-1],"loss_changes":[3.3724287E0,9.659555E-1,1.7512015E0,0E0,0E0,0E0,0E0],"parents":[2147483647,0,0,1,1,2,2],"right_children":[2,4,6,-1,-1,-1,-1],"split_conditions":[4.186083E1,7.5609314E1,2.4137207E1,-8.176421E-2,1.2871945E-2,-2.4557734E-2,7.749386E-2],"split_indices":[0,3,1,0,0,0,0],"split_type":[0,0,0,0,0,0,0],"sum_hessian":[1.0363669E1,4.451138E0,5.9125314E0,3.341434E0,1.109704E0,1.956457E0,3.9560742E0],"tree_param":{"num_deleted":"0","num_feature":"5","num_nodes":"7","size_leaf_vector":"1"}},{"base_weights":[-1.50174415E-2,-7.656001E-2,3.331075E-1,-1.7592975E-1,8.18554E-2,-6.2794365E-2,4.597063E-2],"categories":[],"categories_nodes":[],"categories_segments":[],"categories_sizes":[],"default_left":[0,0,0,0,0,0,0],"id":33,"left_children":[1,-1,3,5,-1,-1,-1],"loss_changes":[3.0896935E0,0E0,2.1475673E0,1.6623014E0,0E0,0E0,0E0],"parents":[2147483647,0,0,2,2,3,3],"right_children":[2,-1,4,6,-1,-1,-1],"split_conditions":[3.0595663E1,-7.656001E-2,5.8712395E1,7.0957825E1,8.18554E-2,-6.2794365E-2,4.597063E-2],"split_indices":[0,0,1,0,0,0,0],"split_type":[0,0,0,0,0,0,0],"sum_hessian":[9.848465E0,2.7405117E0,7.107953E0,3.780904E0,3.327049E0,2.2166796E0,1.5642246E0],"tree_param":{"num_deleted":"0","num_feature":"5","num_nodes":"7","size_leaf_vector":"1"}},{"base_weights":[-1.5323357E-2,-7.487372E-2,3.2304236E-1,-2.0991221E-1,7.573E-2,-5.8884628E-2,4.8804816E-2],"categories":[],"categories_nodes":[],"categories_segments":[],"categories_sizes":[],"default_left":[0,0,0,0,0,0,0],"id":34,"left_children":[1,-1,3,5,-1,-1,-1],"loss_changes":[2.7987273E0,0E0,1.9523913E0,1.4146311E0,0E0,0E0,0E0],"parents":[2147483647,0,0,2,2,3,3],"right_children":[2,-1,4,6,-1,-1,-1],"split_conditions":[3.0595663E1,-7.487372E-2,4.6932693E1,7.5026596E1,7.573E-2,-5.8884628E-2,4.8804816E-2],"split_indices":[0,0,1,2,0,0,0],"split_type":[0,0,0,0,0,0,0],"sum_hessian":[9.303158E0,2.5541615E0,6.7489963E0,3.2621057E0,3.4868903E0,2.2155697E0,1.0465362E0],"tree_param":{"num_deleted":"0","num_feature":"5","num_nodes":"7","size_leaf_vector":"1"}},{"base_weights":[-1.541411E-2,-4.9446377E-1,4.8954785E-1,-7.8528956E-2,1.742849E-2,-1.2466225E-2,7.558404E-2],"categories":[],"categories_nodes":[],"categories_segments":[],"categories_sizes":[],"default_left":[0,0,0,0,0,0,0],"id":35,"left_children":[1,3,5,-1,-1,-1,-1],"loss_changes":[2.617366E0,1.2136405E0,9.5828557E-1,0E0,0E0,0E0,0E0],"parents":[2147483647,0,0,1,1,2,2],"right_children":[2,4,6,-1,-1,-1,-1],"split_conditions":[5.206724E1,7.132582E1,3.6790436E1,-7.8528956E-2,1.742849E-2,-1.2466225E-2,7.558404E-2],"split_indices":[0,1,2,0,0,0,0],"split_type":[0,0,0,0,0,0,0],"sum_hessian":[8.819281E0,4.5364294E0,4.282851E0,3.0400877E0,1.4963417E0,1.4561247E0,2.8267267E0],"tree_param":{"num_deleted":"0","num_feature":"5","num_nodes":"7","size_leaf_vector":"1"}},{"base_weights":[-1.4446263E-2,-7.204925E-2,3.081557E-1,-4.0393848E-2,5.998754E-1,7.871105E-3,7.7575974E-2],"categories":[],"categories_nodes":[],"categories_segments":[],"categories_sizes":[],"default_left":[0,0,0,0,0,0,0],"id":36,"left_children":[1,-1,3,-1,5,-1,-1],"loss_changes":[2.3718653E0,0E0,1.7335988E0,0E0,4.4263935E-1,0E0,0E0],"parents":[2147483647,0,0,2,2,4,4],"right_children":[2,-1,4,-1,6,-1,-1],"split_conditions":[3.0595663E1,-7.204925E-2,2.4556604E1,-4.0393848E-2,3.2153297E1,7.871105E-3,7.7575974E-2],"split_indices":[0,0,3,0,1,0,0],"split_type":[0,0,0,0,0,0,0],"sum_hessian":[8.438572E0,2.2596736E0,6.1788983E0,1.6838657E0,4.495033E0,1.4994663E0,2.9955664E0],"tree_param":{"num_deleted":"0","num_feature":"5","num_nodes":"7","size_leaf_vector":"1"}},{"base_weights":[-1.6298924E-2,-4.0374982E-1,5.660605E-1,-7.228761E-2,2.3001797E-2,1.2004545E-3,7.447062E-2],"categories":[],"categories_nodes":[],"categories_segments":[],"categories_sizes":[],"default_left":[0,0,0,0,0,0,0],"id":37,"left_children":[1,3,5,-1,-1,-1,-1],"loss_changes":[2.274518E0,1.3855822E0,3.908322E-1,0E0,0E0,0E0,0E0],"parents":[2147483647,0,0,1,1,2,2],"right_children":[2,4,6,-1,-1,-1,-1],"split_conditions":[6.3291763E1,6.375887E1,2E0,-7.228761E-2,2.3001797E-2,1.2004545E-3,7.447062E-2],"split_indices":[0,1,4,0,0,0,0],"split_type":[0,0,0,0,0,0,0],"sum_hessian":[8.067587E0,5.0286584E0,3.0389287E0,3.2510364E0,1.7776219E0,1.0011467E0,2.037782E0],"tree_param":{"num_deleted":"0","num_feature":"5","num_nodes":"7","size_leaf_vector":"1"}},{"base_weights":[-1.2417687E-2,-6.9435276E-2,2.959684E-1,-1.6167518E-1,7.542404E-2,-5.6881584E-2,4.219328E-2],"categories":[],"categories_nodes":[],"categories_segments":[],"categories_sizes":[],"default_left":[0,0,0,0,0,0,0],"id":38,"left_children":[1,-1,3,5,-1,-1,-1],"loss_changes":[2.0453942E0,0E0,1.5324767E0,1.2352588E0,0E0,0E0,0E0],"parents":[2147483647,0,0,2,2,3,3],"right_children":[2,-1,4,6,-1,-1,-1],"split_conditions":[3.0595663E1,-6.9435276E-2,5.8712395E1,6.440094E1,7.542404E-2,-5.6881584E-2,4.219328E-2],"split_indices":[0,0,1,3,0,0,0],"split_type":[0,0,0,0,0,0,0],"sum_hessian":[7.748902E0,2.02327E0,5.7256317E0,3.1886055E0,2.5370264E0,1.8932025E0,1.295403E0],"tree_param":{"num_deleted":"0","num_feature":"5","num_nodes":"7","size_leaf_vector":"1"}},{"base_weights":[-1.26614235E-2,-3.8447422E-1,5.3852296E-1,-6.888057E-2,2.0860795E-2,3.459594E-3,7.078912E-2],"categories":[],"categories_nodes":[],"categories_segments":[],"categories_sizes":[],"default_left":[0,0,0,0,0,0,0],"id":39,"left_children":[1,3,5,-1,-1,-1,-1],"loss_changes":[1.9215105E0,1.1507053E0,2.9868925E-1,0E0,0E0,0E0,0E0],"parents":[2147483647,0,0,1,1,2,2],"right_children":[2,4,6,-1,-1,-1,-1],"split_conditions":[6.3291763E1,6.375887E1,3.900626E1,-6.888057E-2,2.0860795E-2,3.459594E-3,7.078912E-2],"split_indices":[0,1,2,0,0,0,0],"split_type":[0,0,0,0,0,0,0],"sum_hessian":[7.365784E0,4.579229E0,2.7865553E0,2.919652E0,1.659577E0,1.0038953E0,1.78266E0],"tree_param":{"num_deleted":"0","num_feature":"5","num_nodes":"7","size_leaf_vector":"1"}},{"base_weights":[-8.746486E-3,-6.688617E-2,2.8948966E-1,-2.781027E-1,6.2244534E-1,-4.734532E-2,5.5556996E-3,1.2435624E-2,7.480595E-2],"categories":[],"categories_nodes":[],"categories_segments":[],"categories_sizes":[],"default_left":[0,0,0,0,0,0,0,0,0],"id":40,"left_children":[1,-1,3,5,7,-1,-1,-1,-1],"loss_changes":[1.7875233E0,0E0,1.358896E0,2.2256656E-1,1.7373085E-1,0E0,0E0,0E0,0E0],"parents":[2147483647,0,0,2,2,3,3,4,4],"right_children":[2,-1,4,6,8,-1,-1,-1,-1],"split_conditions":[3.0595663E1,-6.688617E-2,3.6790436E1,3.0580023E1,4.4122276E1,-4.734532E-2,5.5556996E-3,1.2435624E-2,7.480595E-2],"split_indices":[0,0,2,3,3,0,0,0,0],"split_type":[0,0,0,0,0,0,0,0,0],"sum_hessian":[7.09617E0,1.8215749E0,5.2745953E0,2.0110636E0,3.2635317E0,1.0041721E0,1.0068915E0,1.0580615E0,2.20547E0],"tree_param":{"num_deleted":"0","num_feature":"5","num_nodes":"9","size_leaf_vector":"1"}},{"base_weights":[-1.08325565E-2,-4.4262856E-1,4.228861E-1,-7.06133E-2,1.2589805E-2,-1.3613872E-2,6.952669E-2],"categories":[],"categories_nodes":[],"categories_segments":[],"categories_sizes":[],"default_left":[0,0,0,0,0,0,0],"id":41,"left_children":[1,3,5,-1,-1,-1,-1],"loss_changes":[1.6522822E0,7.493875E-1,7.6680493E-1,0E0,0E0,0E0,0E0],"parents":[2147483647,0,0,1,1,2,2],"right_children":[2,4,6,-1,-1,-1,-1],"split_conditions":[5.206724E1,7.132582E1,2.4137207E1,-7.06133E-2,1.2589805E-2,-1.3613872E-2,6.952669E-2],"split_indices":[0,1,1,0,0,0,0],"split_type":[0,0,0,0,0,0,0],"sum_hessian":[6.8231335E0,3.4088507E0,3.4142826E0,2.1638808E0,1.24497E0,1.2824389E0,2.1318436E0],"tree_param":{"num_deleted":"0","num_feature":"5","num_nodes":"7","size_leaf_vector":"1"}},{"base_weights":[-1.041617E-2,-6.421061E-2,2.7343222E-1,-1.9134569E-1,6.721904E-2,-5.5918276E-2,3.4461778E-2],"categories":[],"categories_nodes":[],"categories_segments":[],"categories_sizes":[],"default_left":[0,0,0,0,0,0,0],"id":42,"left_children":[1,-1,3,5,-1,-1,-1],"loss_changes":[1.5273571E0,0E0,1.2226536E0,8.835636E-1,0E0,0E0,0E0],"parents":[2147483647,0,0,2,2,3,3],"right_children":[2,-1,4,6,-1,-1,-1],"split_conditions":[3.0595663E1,-6.421061E-2,4.6932693E1,6.440094E1,6.721904E-2,-5.5918276E-2,3.4461778E-2],"split_indices":[0,0,1,3,0,0,0],"split_type":[0,0,0,0,0,0,0],"sum_hessian":[6.5390587E0,1.6360253E0,4.9030337E0,2.504281E0,2.3987525E0,1.4593751E0,1.044906E0],"tree_param":{"num_deleted":"0","num_feature":"5","num_nodes":"7","size_leaf_vector":"1"}},{"base_weights":[-1.2307303E-2,-3.589016E-1,4.9122483E-1,-6.154141E-2,2.4163535E-2,8.191527E-3,6.340825E-2],"categories":[],"categories_nodes":[],"categories_segments":[],"categories_sizes":[],"default_left":[0,0,0,0,0,0,0],"id":43,"left_children":[1,3,5,-1,-1,-1,-1],"loss_changes":[1.4397897E0,8.9828056E-1,1.4533484E-1,0E0,0E0,0E0,0E0],"parents":[2147483647,0,0,1,1,2,2],"right_children":[2,4,6,-1,-1,-1,-1],"split_conditions":[6.3291763E1,7.5609314E1,4.510465E1,-6.154141E-2,2.4163535E-2,8.191527E-3,6.340825E-2],"split_indices":[0,3,2,0,0,0,0],"split_type":[0,0,0,0,0,0,0],"sum_hessian":[6.239734E0,3.8659394E0,2.3737948E0,2.6915162E0,1.1744233E0,1.0212259E0,1.3525689E0],"tree_param":{"num_deleted":"0","num_feature":"5","num_nodes":"7","size_leaf_vector":"1"}},{"base_weights":[-6.7071896E-3,-6.1385673E-2,2.6399246E-1,-2.6868885E-2,5.8792543E-1,1.5924139E-2,6.8600364E-2],"categories":[],"categories_nodes":[],"categories_segments":[],"categories_sizes":[],"default_left":[0,0,0,0,0,0,0],"id":44,"left_children":[1,-1,3,-1,5,-1,-1],"loss_changes":[1.3195009E0,0E0,1.1190892E0,0E0,4.95764E-2,0E0,0E0],"parents":[2147483647,0,0,2,2,4,4],"right_children":[2,-1,4,-1,6,-1,-1],"split_conditions":[3.0595663E1,-6.1385673E-2,3.6790436E1,-2.6868885E-2,4.6832054E1,1.5924139E-2,6.8600364E-2],"split_indices":[0,0,2,0,3,0,0],"split_type":[0,0,0,0,0,0,0],"sum_hessian":[6.0423546E0,1.4723556E0,4.569999E0,1.792659E0,2.77734E0,1.0056075E0,1.7717324E0],"tree_param":{"num_deleted":"0","num_feature":"5","num_nodes":"7","size_leaf_vector":"1"}},{"base_weights":[-6.666038E-3,-3.3845794E-1,4.6661434E-1,-6.2662326E-2,1.9547688E-2,8.429427E-3,6.0229238E-2],"categories":[],"categories_nodes":[],"categories_segments":[],"categories_sizes":[],"default_left":[0,0,0,0,0,0,0],"id":45,"left_children":[1,3,5,-1,-1,-1,-1],"loss_changes":[1.2330198E0,8.3092946E-1,1.1739957E-1,0E0,0E0,0E0,0E0],"parents":[2147483647,0,0,1,1,2,2],"right_children":[2,4,6,-1,-1,-1,-1],"split_conditions":[6.3291763E1,6.375887E1,4.510465E1,-6.2662326E-2,1.9547688E-2,8.429427E-3,6.0229238E-2],"split_indices":[0,1,2,0,0,0,0],"split_type":[0,0,0,0,0,0,0],"sum_hessian":[5.846376E0,3.6043937E0,2.2419822E0,2.2282233E0,1.3761704E0,1.0118955E0,1.2300867E0],"tree_param":{"num_deleted":"0","num_feature":"5","num_nodes":"7","size_leaf_vector":"1"}},{"base_weights":[-2.5593191E-3,-5.9038337E-2,2.5670546E-1,-1.9254053E-1,6.3868344E-2,-5.4520406E-2,2.564768E-2],"categories":[],"categories_nodes":[],"categories_segments":[],"categories_sizes":[],"default_left":[0,0,0,0,0,0,0],"id":46,"left_children":[1,-1,3,5,-1,-1,-1],"loss_changes":[1.1673629E0,0E0,1.0362813E0,6.4879686E-1,0E0,0E0,0E0],"parents":[2147483647,0,0,2,2,3,3],"right_children":[2,-1,4,6,-1,-1,-1],"split_conditions":[3.0595663E1,-5.9038337E-2,4.6932693E1,4.2176605E1,6.3868344E-2,-5.4520406E-2,2.564768E-2],"split_indices":[0,0,1,2,0,0,0],"split_type":[0,0,0,0,0,0,0],"sum_hessian":[5.6653185E0,1.3430693E0,4.3222494E0,2.2141342E0,2.108115E0,1.1201438E0,1.0939903E0],"tree_param":{"num_deleted":"0","num_feature":"5","num_nodes":"7","size_leaf_vector":"1"}},{"base_weights":[-6.1015435E-3,-3.8355532E-1,3.810422E-1,-6.2214967E-2,1.18615925E-2,-1.1385634E-2,6.268614E-2],"categories":[],"categories_nodes":[],"categories_segments":[],"categories_sizes":[],"default_left":[0,0,0,0,0,0,0],"id":47,"left_children":[1,3,5,-1,-1,-1,-1],"loss_changes":[1.0848825E0,5.232312E-1,5.1820517E-1,0E0,0E0,0E0,0E0],"parents":[2147483647,0,0,1,1,2,2],"right_children":[2,4,6,-1,-1,-1,-1],"split_conditions":[5.354348E1,7.132582E1,2.4137207E1,-6.2214967E-2,1.18615925E-2,-1.1385634E-2,6.268614E-2],"split_indices":[0,1,1,0,0,0,0],"split_type":[0,0,0,0,0,0,0],"sum_hessian":[5.4239993E0,2.7510629E0,2.6729364E0,1.7030033E0,1.0480596E0,1.0652125E0,1.6077238E0],"tree_param":{"num_deleted":"0","num_feature":"5","num_nodes":"7","size_leaf_vector":"1"}},{"base_weights":[-5.502423E-3,-4.4500914E-1,3.2116354E-1,-5.3301867E-2,-1.3641208E-2,-1.5088997E-2,5.36084E-2],"categories":[],"categories_nodes":[],"categories_segments":[],"categories_sizes":[],"default_left":[0,0,0,0,0,0,0],"id":48,"left_children":[1,3,5,-1,-1,-1,-1],"loss_changes":[1.0374317E0,1.0820985E-2,5.024134E-1,0E0,0E0,0E0,0E0],"parents":[2147483647,0,0,1,1,2,2],"right_children":[2,4,6,-1,-1,-1,-1],"split_conditions":[3.5768265E1,4.8230343E1,4.186083E1,-5.3301867E-2,-1.3641208E-2,-1.5088997E-2,5.36084E-2],"split_indices":[3,0,0,0,0,0,0],"split_type":[0,0,0,0,0,0,0],"sum_hessian":[5.2304053E0,2.0755792E0,3.1548262E0,1.0491406E0,1.0264387E0,1.0801971E0,2.0746288E0],"tree_param":{"num_deleted":"0","num_feature":"5","num_nodes":"7","size_leaf_vector":"1"}},{"base_weights":[-9.630242E-3,-5.5706866E-2,2.3534432E-1,-1.6316558E-1,6.4313784E-2,-5.1942416E-2,2.6349505E-2],"categories":[],"categories_nodes":[],"categories_segments":[],"categories_sizes":[],"default_left":[0,0,0,0,0,0,0],"id":49,"left_children":[1,-1,3,5,-1,-1,-1],"loss_changes":[9.494152E-1,0E0,9.0423846E-1,6.362197E-1,0E0,0E0,0E0],"parents":[2147483647,0,0,2,2,3,3],"right_children":[2,-1,4,6,-1,-1,-1],"split_conditions":[3.0595663E1,-5.5706866E-2,5.8712395E1,3.6790436E1,6.4313784E-2,-5.1942416E-2,2.6349505E-2],"split_indices":[0,0,1,2,0,0,0],"split_type":[0,0,0,0,0,0,0],"sum_hessian":[5.101867E0,1.1833899E0,3.918477E0,2.285191E0,1.6332861E0,1.1268564E0,1.1583345E0],"tree_param":{"num_deleted":"0","num_feature":"5","num_nodes":"7","size_leaf_vector":"1"}},{"base_weights":[-1.1799106E-2,-2.9095188E-1,4.5940965E-2,-5.930775E-2,2.2111654E-2],"categories":[],"categories_nodes":[],"categories_segments":[],"categories_sizes":[],"default_left":[0,0,0,0,0],"id":50,"left_children":[1,3,-1,-1,-1],"loss_changes":[9.08705E-1,7.982956E-1,0E0,0E0,0E0],"parents":[2147483647,0,0,1,1],"right_children":[2,4,-1,-1,-1],"split_conditions":[7.0957825E1,6.375887E1,4.5940965E-2,-5.930775E-2,2.2111654E-2],"split_indices":[0,1,0,0,0],"split_type":[0,0,0,0,0],"sum_hessian":[4.8920746E0,3.3123305E0,1.5797442E0,1.9837172E0,1.3286133E0],"tree_param":{"num_deleted":"0","num_feature":"5","num_nodes":"5","size_leaf_vector":"1"}},{"base_weights":[-9.643812E-3,-3.928489E-1,3.3587372E-1,-5.3249862E-2,-4.5431773E-3,-1.2047685E-3,5.19843E-2],"categories":[],"categories_nodes":[],"categories_segments":[],"categories_sizes":[],"default_left":[0,0,0,0,0,0,0],"id":51,"left_children":[1,3,5,-1,-1,-1,-1],"loss_changes":[8.924945E-1,1.3030607E-1,2.3410782E-1,0E0,0E0,0E0,0E0],"parents":[2147483647,0,0,1,1,2,2],"right_children":[2,4,6,-1,-1,-1,-1],"split_conditions":[4.4122276E1,4.7750587E1,5.354348E1,-5.3249862E-2,-4.5431773E-3,-1.2047685E-3,5.19843E-2],"split_indices":[3,1,0,0,0,0,0],"split_type":[0,0,0,0,0,0,0],"sum_hessian":[4.7441344E0,2.1844392E0,2.5596955E0,1.1781343E0,1.0063049E0,1.2085696E0,1.3511257E0],"tree_param":{"num_deleted":"0","num_feature":"5","num_nodes":"7","size_leaf_vector":"1"}},{"base_weights":[-1.0081139E-2,-5.324902E-2,2.2960424E-1,-2.3646526E-2,5.4535117E-2],"categories":[],"categories_nodes":[],"categories_segments":[],"categories_sizes":[],"default_left":[0,0,0,0,0],"id":52,"left_children":[1,-1,3,-1,-1],"loss_changes":[8.2875735E-1,0E0,8.00959E-1,0E0,0E0],"parents":[2147483647,0,0,2,2],"right_children":[2,-1,4,-1,-1],"split_conditions":[3.0595663E1,-5.324902E-2,3.2153297E1,-2.3646526E-2,5.4535117E-2],"split_indices":[0,0,1,0,0],"split_type":[0,0,0,0,0],"sum_hessian":[4.642311E0,1.075837E0,3.5664744E0,1.5417749E0,2.0246994E0],"tree_param":{"num_deleted":"0","num_feature":"5","num_nodes":"5","size_leaf_vector":"1"}},{"base_weights":[-1.3270148E-2,-3.8168803E-1,3.207421E-1,-5.191172E-2,-6.392891E-3,-1.3990094E-3,4.9754113E-2],"categories":[],"categories_nodes":[],"categories_segments":[],"categories_sizes":[],"default_left":[0,0,0,0,0,0,0],"id":53,"left_children":[1,3,5,-1,-1,-1,-1],"loss_changes":[7.9865724E-1,1.00865275E-1,2.0969057E-1,0E0,0E0,0E0,0E0],"parents":[2147483647,0,0,1,1,2,2],"right_children":[2,4,6,-1,-1,-1,-1],"split_conditions":[4.4122276E1,4.66721E1,5.354348E1,-5.191172E-2,-6.392891E-3,-1.3990094E-3,4.9754113E-2],"split_indices":[3,0,0,0,0,0,0],"split_type":[0,0,0,0,0,0,0],"sum_hessian":[4.4953303E0,2.0697E0,2.4256303E0,1.0024599E0,1.0672401E0,1.1566411E0,1.2689893E0],"tree_param":{"num_deleted":"0","num_feature":"5","num_nodes":"7","size_leaf_vector":"1"}},{"base_weights":[-1.4009231E-2,-3.831742E-2,3.1170034E-1,-1.0556367E-2,5.3293314E-2],"categories":[],"categories_nodes":[],"categories_segments":[],"categories_sizes":[],"default_left":[0,0,0,0,0],"id":54,"left_children":[1,-1,3,-1,-1],"loss_changes":[7.690391E-1,0E0,3.7211713E-1,0E0,0E0],"parents":[2147483647,0,0,2,2],"right_children":[2,-1,4,-1,-1],"split_conditions":[4.0499405E1,-3.831742E-2,4.66721E1,-1.0556367E-2,5.3293314E-2],"split_indices":[2,0,0,0,0],"split_type":[0,0,0,0,0],"sum_hessian":[4.4025335E0,1.9809083E0,2.4216254E0,1.0202276E0,1.4013977E0],"tree_param":{"num_deleted":"0","num_feature":"5","num_nodes":"5","size_leaf_vector":"1"}},{"base_weights":[-1.1839403E-2,-4.020004E-2,2.8482315E-1,-4.9523734E-3,4.969991E-2],"categories":[],"categories_nodes":[],"categories_segments":[],"categories_sizes":[],"default_left":[0,0,0,0,0],"id":55,"left_children":[1,-1,3,-1,-1],"loss_changes":[7.290391E-1,0E0,2.8009647E-1,0E0,0E0],"parents":[2147483647,0,0,2,2],"right_children":[2,-1,4,-1,-1],"split_conditions":[3.5768265E1,-4.020004E-2,5.354348E1,-4.9523734E-3,4.969991E-2],"split_indices":[3,0,0,0,0],"split_type":[0,0,0,0,0],"sum_hessian":[4.3093777E0,1.7079979E0,2.6013796E0,1.3075435E0,1.2938361E0],"tree_param":{"num_deleted":"0","num_feature":"5","num_nodes":"5","size_leaf_vector":"1"}},{"base_weights":[-9.861344E-3,-3.6058526E-2,3.000366E-1,-9.21538E-3,5.0973594E-2],"categories":[],"categories_nodes":[],"categories_segments":[],"categories_sizes":[],"default_left":[0,0,0,0,0],"id":56,"left_children":[1,-1,3,-1,-1],"loss_changes":[6.7629313E-1,0E0,3.200823E-1,0E0,0E0],"parents":[2147483647,0,0,2,2],"right_children":[2,-1,4,-1,-1],"split_conditions":[4.0499405E1,-3.6058526E-2,4.66721E1,-9.21538E-3,5.0973594E-2],"split_indices":[2,0,0,0,0],"split_type":[0,0,0,0,0],"sum_hessian":[4.226898E0,1.9061128E0,2.3207853E0,1.0038594E0,1.316926E0],"tree_param":{"num_deleted":"0","num_feature":"5","num_nodes":"5","size_leaf_vector":"1"}},{"base_weights":[-7.764733E-3,-2.981658E-1,3.567668E-2,-5.26534E-2,1.1876653E-2],"categories":[],"categories_nodes":[],"categories_segments":[],"categories_sizes":[],"default_left":[0,0,0,0,0],"id":57,"left_children":[1,3,-1,-1,-1],"loss_changes":[6.509648E-1,3.8703245E-1,0E0,0E0,0E0],"parents":[2147483647,0,0,1,1],"right_children":[2,4,-1,-1,-1],"split_conditions":[5.907448E1,6.1098755E1,3.567668E-2,-5.26534E-2,1.1876653E-2],"split_indices":[1,0,0,0,0],"split_type":[0,0,0,0,0],"sum_hessian":[4.1444116E0,2.4080865E0,1.736325E0,1.3860325E0,1.0220541E0],"tree_param":{"num_deleted":"0","num_feature":"5","num_nodes":"5","size_leaf_vector":"1"}},{"base_weights":[-8.32658E-3,-3.537754E-2,3.018299E-1,1.2042499E-4,4.5029365E-2],"categories":[],"categories_nodes":[],"categories_segments":[],"categories_sizes":[],"default_left":[0,0,0,0,0],"id":58,"left_children":[1,-1,3,-1,-1],"loss_changes":[6.480142E-1,0E0,1.4233968E-1,0E0,0E0],"parents":[2147483647,0,0,2,2],"right_children":[2,-1,4,-1,-1],"split_conditions":[4.4122276E1,-3.537754E-2,4.532799E1,1.2042499E-4,4.5029365E-2],"split_indices":[3,0,1,0,0],"split_type":[0,0,0,0,0],"sum_hessian":[4.051504E0,1.8501703E0,2.2013338E0,1.0610051E0,1.1403286E0],"tree_param":{"num_deleted":"0","num_feature":"5","num_nodes":"5","size_leaf_vector":"1"}},{"base_weights":[-5.5625364E-3,-2.5485462E-1,4.0195134E-2,-5.366353E-2,2.0143911E-2],"categories":[],"categories_nodes":[],"categories_segments":[],"categories_sizes":[],"default_left":[0,0,0,0,0],"id":59,"left_children":[1,3,-1,-1,-1],"loss_changes":[6.089461E-1,5.845208E-1,0E0,0E0,0E0],"parents":[2147483647,0,0,1,1],"right_children":[2,4,-1,-1,-1],"split_conditions":[7.0957825E1,6.375887E1,4.0195134E-2,-5.366353E-2,2.0143911E-2],"split_indices":[0,1,0,0,0],"split_type":[0,0,0,0,0],"sum_hessian":[3.985796E0,2.7054055E0,1.2803906E0,1.563688E0,1.1417173E0],"tree_param":{"num_deleted":"0","num_feature":"5","num_nodes":"5","size_leaf_vector":"1"}},{"base_weights":[-3.961639E-3,-2.806474E-1,3.600195E-2,-4.942234E-2,8.193547E-3],"categories":[],"categories_nodes":[],"categories_segments":[],"categories_sizes":[],"default_left":[0,0,0,0,0],"id":60,"left_children":[1,3,-1,-1,-1],"loss_changes":[5.9248334E-1,2.9870254E-1,0E0,0E0,0E0],"parents":[2147483647,0,0,1,1],"right_children":[2,4,-1,-1,-1],"split_conditions":[6.440094E1,5.5596943E1,3.600195E-2,-4.942234E-2,8.193547E-3],"split_indices":[3,1,0,0,0],"split_type":[0,0,0,0,0],"sum_hessian":[3.8798788E0,2.3343432E0,1.5455356E0,1.2405474E0,1.0937959E0],"tree_param":{"num_deleted":"0","num_feature":"5","num_nodes":"5","size_leaf_vector":"1"}},{"base_weights":[-4.8509603E-3,-3.3675518E-2,2.8921E-1,-5.0307247E-3,4.7691096E-2],"categories":[],"categories_nodes":[],"categories_segments":[],"categories_sizes":[],"default_left":[0,0,0,0,0],"id":61,"left_children":[1,-1,3,-1,-1],"loss_changes":[5.665623E-1,0E0,2.2070765E-1,0E0,0E0],"parents":[2147483647,0,0,2,2],"right_children":[2,-1,4,-1,-1],"split_conditions":[4.0499405E1,-3.3675518E-2,5.2375294E1,-5.0307247E-3,4.7691096E-2],"split_indices":[2,0,0,0,0],"split_type":[0,0,0,0,0],"sum_hessian":[3.8070593E0,1.7202446E0,2.0868146E0,1.0035518E0,1.0832629E0],"tree_param":{"num_deleted":"0","num_feature":"5","num_nodes":"5","size_leaf_vector":"1"}},{"base_weights":[-2.4147762E-3,-3.872998E-2,2.4367952E-1,-2.162651E-2,5.1483132E-2],"categories":[],"categories_nodes":[],"categories_segments":[],"categories_sizes":[],"default_left":[0,0,0,0,0],"id":62,"left_children":[1,-1,3,-1,-1],"loss_changes":[5.434587E-1,0E0,5.485748E-1,0E0,0E0],"parents":[2147483647,0,0,2,2],"right_children":[2,-1,4,-1,-1],"split_conditions":[3.7092228E1,-3.872998E-2,2.4137207E1,-2.162651E-2,5.1483132E-2],"split_indices":[0,0,1,0,0],"split_type":[0,0,0,0,0],"sum_hessian":[3.7412493E0,1.2353728E0,2.5058765E0,1.0044633E0,1.5014131E0],"tree_param":{"num_deleted":"0","num_feature":"5","num_nodes":"5","size_leaf_vector":"1"}},{"base_weights":[-3.9443257E-3,-3.5430152E-2,2.6263538E-1,-3.6064626E-3,4.4587057E-2],"categories":[],"categories_nodes":[],"categories_segments":[],"categories_sizes":[],"default_left":[0,0,0,0,0],"id":63,"left_children":[1,-1,3,-1,-1],"loss_changes":[5.2633053E-1,0E0,1.9170517E-1,0E0,0E0],"parents":[2147483647,0,0,2,2],"right_children":[2,-1,4,-1,-1],"split_conditions":[3.5768265E1,-3.5430152E-2,5.354348E1,-3.6064626E-3,4.4587057E-2],"split_indices":[3,0,0,0,0],"split_type":[0,0,0,0,0],"sum_hessian":[3.639049E0,1.4302514E0,2.2087977E0,1.1451747E0,1.063623E0],"tree_param":{"num_deleted":"0","num_feature":"5","num_nodes":"5","size_leaf_vector":"1"}},{"base_weights":[-2.30882E-3,-3.189456E-2,2.7926235E-2],"categories":[],"categories_nodes":[],"categories_segments":[],"categories_sizes":[],"default_left":[0,0,0],"id":64,"left_children":[1,-1,-1],"loss_changes":[4.9730942E-1,0E0,0E0],"parents":[2147483647,0,0],"right_children":[2,-1,-1],"split_conditions":[4.0499405E1,-3.189456E-2,2.7926235E-2],"split_indices":[2,0,0],"split_type":[0,0,0],"sum_hessian":[3.5789504E0,1.6221027E0,1.9568477E0],"tree_param":{"num_deleted":"0","num_feature":"5","num_nodes":"3","size_leaf_vector":"1"}},{"base_weights":[-2.991366E-3,-2.3588811E-1,3.724899E-2,-5.041922E-2,1.8834589E-2],"categories":[],"categories_nodes":[],"categories_segments":[],"categories_sizes":[],"default_left":[0,0,0,0,0],"id":65,"left_children":[1,3,-1,-1,-1],"loss_changes":[4.8484287E-1,4.835579E-1,0E0,0E0,0E0],"parents":[2147483647,0,0,1,1],"right_children":[2,4,-1,-1,-1],"split_conditions":[7.0957825E1,6.375887E1,3.724899E-2,-5.041922E-2,1.8834589E-2],"split_indices":[0,1,0,0,0],"split_type":[0,0,0,0,0],"sum_hessian":[3.5395582E0,2.4140108E0,1.1255476E0,1.3633144E0,1.0506963E0],"tree_param":{"num_deleted":"0","num_feature":"5","num_nodes":"5","size_leaf_vector":"1"}},{"base_weights":[-1.6571726E-3,-2.616243E-1,3.3157717E-2,-4.641517E-2,6.4665587E-3],"categories":[],"categories_nodes":[],"categories_segments":[],"categories_sizes":[],"default_left":[0,0,0,0,0],"id":66,"left_children":[1,3,-1,-1,-1],"loss_changes":[4.7247112E-1,2.3224042E-1,0E0,0E0,0E0],"parents":[2147483647,0,0,1,1],"right_children":[2,4,-1,-1,-1],"split_conditions":[6.440094E1,4.825725E1,3.3157717E-2,-4.641517E-2,6.4665587E-3],"split_indices":[3,1,0,0,0],"split_type":[0,0,0,0,0],"sum_hessian":[3.4525287E0,2.060196E0,1.3923328E0,1.01048E0,1.0497158E0],"tree_param":{"num_deleted":"0","num_feature":"5","num_nodes":"5","size_leaf_vector":"1"}},{"base_weights":[-3.1766207E-3,-3.615294E-2,2.332926E-1,-1.7902976E-2,4.9984537E-2],"categories":[],"categories_nodes":[],"categories_segments":[],"categories_sizes":[],"default_left":[0,0,0,0,0],"id":67,"left_children":[1,-1,3,-1,-1],"loss_changes":[4.566915E-1,0E0,4.4723096E-1,0E0,0E0],"parents":[2147483647,0,0,2,2],"right_children":[2,-1,4,-1,-1],"split_conditions":[3.7092228E1,-3.615294E-2,3.2153297E1,-1.7902976E-2,4.9984537E-2],"split_indices":[0,0,1,0,0],"split_type":[0,0,0,0,0],"sum_hessian":[3.3940527E0,1.1390446E0,2.255008E0,1.0143274E0,1.2406807E0],"tree_param":{"num_deleted":"0","num_feature":"5","num_nodes":"5","size_leaf_vector":"1"}},{"base_weights":[-3.681253E-3,-3.058218E-2,2.6549732E-2],"categories":[],"categories_nodes":[],"categories_segments":[],"categories_sizes":[],"default_left":[0,0,0],"id":68,"left_children":[1,-1,-1],"loss_changes":[4.3165815E-1,0E0,0E0],"parents":[2147483647,0,0],"right_children":[2,-1,-1],"split_conditions":[4.4122276E1,-3.058218E-2,2.6549732E-2],"split_indices":[3,0,0],"split_type":[0,0,0],"sum_hessian":[3.309163E0,1.4949834E0,1.8141798E0],"tree_param":{"num_deleted":"0","num_feature":"5","num_nodes":"3","size_leaf_vector":"1"}},{"base_weights":[-4.3033957E-3,-2.4742424E-1,3.2750927E-2,-4.2829484E-2,6.0134158E-3],"categories":[],"categories_nodes":[],"categories_segments":[],"categories_sizes":[],"default_left":[0,0,0,0,0],"id":69,"left_children":[1,3,-1,-1,-1],"loss_changes":[4.258848E-1,1.9468573E-1,0E0,0E0,0E0],"parents":[2147483647,0,0,1,1],"right_children":[2,4,-1,-1,-1],"split_conditions":[6.3291763E1,5.423644E1,3.2750927E-2,-4.2829484E-2,6.0134158E-3],"split_indices":[0,1,0,0,0],"split_type":[0,0,0,0,0],"sum_hessian":[3.2748065E0,2.0367758E0,1.2380308E0,1.035342E0,1.0014338E0],"tree_param":{"num_deleted":"0","num_feature":"5","num_nodes":"5","size_leaf_vector":"1"}},{"base_weights":[-4.9781133E-3,-3.245126E-2,2.4511574E-2],"categories":[],"categories_nodes":[],"categories_segments":[],"categories_sizes":[],"default_left":[0,0,0],"id":70,"left_children":[1,-1,-1],"loss_changes":[4.1661742E-1,0E0,0E0],"parents":[2147483647,0,0],"right_children":[2,-1,-1],"split_conditions":[3.3071606E1,-3.245126E-2,2.4511574E-2],"split_indices":[2,0,0],"split_type":[0,0,0],"sum_hessian":[3.2179837E0,1.282203E0,1.9357808E0],"tree_param":{"num_deleted":"0","num_feature":"5","num_nodes":"3","size_leaf_vector":"1"}},{"base_weights":[-6.4496966E-3,-3.4372393E-2,2.206666E-1,-1.5500329E-2,4.7916323E-2],"categories":[],"categories_nodes":[],"categories_segments":[],"categories_sizes":[],"default_left":[0,0,0,0,0],"id":71,"left_children":[1,-1,3,-1,-1],"loss_changes":[3.9637935E-1,0E0,3.762437E-1,0E0,0E0],"parents":[2147483647,0,0,2,2],"right_children":[2,-1,4,-1,-1],"split_conditions":[3.7092228E1,-3.4372393E-2,3.941258E1,-1.5500329E-2,4.7916323E-2],"split_indices":[0,0,1,0,0],"split_type":[0,0,0,0,0],"sum_hessian":[3.1844513E0,1.0748465E0,2.1096048E0,1.0231051E0,1.0864997E0],"tree_param":{"num_deleted":"0","num_feature":"5","num_nodes":"5","size_leaf_vector":"1"}},{"base_weights":[-6.2285475E-3,-2.5293995E-2,3.0462814E-2],"categories":[],"categories_nodes":[],"categories_segments":[],"categories_sizes":[],"default_left":[0,0,0],"id":72,"left_children":[1,-1,-1],"loss_changes":[3.9236712E-1,0E0,0E0],"parents":[2147483647,0,0],"right_children":[2,-1,-1],"split_conditions":[6.440094E1,-2.5293995E-2,3.0462814E-2],"split_indices":[3,0,0],"split_type":[0,0,0],"sum_hessian":[3.111446E0,1.8385746E0,1.2728713E0],"tree_param":{"num_deleted":"0","num_feature":"5","num_nodes":"3","size_leaf_vector":"1"}},{"base_weights":[-4.366195E-3,-2.386303E-2,3.1246677E-2],"categories":[],"categories_nodes":[],"categories_segments":[],"categories_sizes":[],"default_left":[0,0,0],"id":73,"left_children":[1,-1,-1],"loss_changes":[3.7742847E-1,0E0,0E0],"parents":[2147483647,0,0],"right_children":[2,-1,-1],"split_conditions":[6.3291763E1,-2.386303E-2,3.1246677E-2],"split_indices":[0,0,0],"split_type":[0,0,0],"sum_hessian":[3.0804887E0,1.9129171E0,1.1675714E0],"tree_param":{"num_deleted":"0","num_feature":"5","num_nodes":"3","size_leaf_vector":"1"}},{"base_weights":[-2.109542E-3,-2.4726512E-2,2.9586617E-2],"categories":[],"categories_nodes":[],"categories_segments":[],"categories_sizes":[],"default_left":[0,0,0],"id":74,"left_children":[1,-1,-1],"loss_changes":[3.6866486E-1,0E0,0E0],"parents":[2147483647,0,0],"right_children":[2,-1,-1],"split_conditions":[6.203577E1,-2.4726512E-2,2.9586617E-2],"split_indices":[1,0,0],"split_type":[0,0,0],"sum_hessian":[3.0452545E0,1.7640716E0,1.2811829E0],"tree_param":{"num_deleted":"0","num_feature":"5","num_nodes":"3","size_leaf_vector":"1"}},{"base_weights":[-6.847966E-4,-2.872817E-2,2.5431966E-2],"categories":[],"categories_nodes":[],"categories_segments":[],"categories_sizes":[],"default_left":[0,0,0],"id":75,"left_children":[1,-1,-1],"loss_changes":[3.6623922E-1,0E0,0E0],"parents":[2147483647,0,0],"right_children":[2,-1,-1],"split_conditions":[4.0499405E1,-2.872817E-2,2.5431966E-2],"split_indices":[2,0,0],"split_type":[0,0,0],"sum_hessian":[3.011547E0,1.3583436E0,1.6532035E0],"tree_param":{"num_deleted":"0","num_feature":"5","num_nodes":"3","size_leaf_vector":"1"}},{"base_weights":[-1.4636983E-3,-3.0666187E-2,2.3261907E-2],"categories":[],"categories_nodes":[],"categories_segments":[],"categories_sizes":[],"default_left":[0,0,0],"id":76,"left_children":[1,-1,-1],"loss_changes":[3.558061E-1,0E0,0E0],"parents":[2147483647,0,0],"right_children":[2,-1,-1],"split_conditions":[3.5768265E1,-3.0666187E-2,2.3261907E-2],"split_indices":[3,0,0],"split_type":[0,0,0],"sum_hessian":[2.9818616E0,1.1597357E0,1.822126E0],"tree_param":{"num_deleted":"0","num_feature":"5","num_nodes":"3","size_leaf_vector":"1"}},{"base_weights":[-3.23013E-3,-2.679838E-2,2.6173726E-2],"categories":[],"categories_nodes":[],"categories_segments":[],"categories_sizes":[],"default_left":[0,0,0],"id":77,"left_children":[1,-1,-1],"loss_changes":[3.4743878E-1,0E0,0E0],"parents":[2147483647,0,0],"right_children":[2,-1,-1],"split_conditions":[5.206724E1,-2.679838E-2,2.6173726E-2],"split_indices":[0,0,0],"split_type":[0,0,0],"sum_hessian":[2.9528596E0,1.4713312E0,1.4815285E0],"tree_param":{"num_deleted":"0","num_feature":"5","num_nodes":"3","size_leaf_vector":"1"}},{"base_weights":[-3.0967824E-3,-2.4024937E-2,2.8453892E-2],"categories":[],"categories_nodes":[],"categories_segments":[],"categories_sizes":[],"default_left":[0,0,0],"id":78,"left_children":[1,-1,-1],"loss_changes":[3.3572567E-1,0E0,0E0],"parents":[2147483647,0,0],"right_children":[2,-1,-1],"split_conditions":[6.203577E1,-2.4024937E-2,2.8453892E-2],"split_indices":[1,0,0],"split_type":[0,0,0],"sum_hessian":[2.9195342E0,1.6904887E0,1.2290456E0],"tree_param":{"num_deleted":"0","num_feature":"5","num_nodes":"3","size_leaf_vector":"1"}},{"base_weights":[-1.6545752E-3,-2.3521097E-2,2.863293E-2],"categories":[],"categories_nodes":[],"categories_segments":[],"categories_sizes":[],"default_left":[0,0,0],"id":79,"left_children":[1,-1,-1],"loss_changes":[3.2890606E-1,0E0,0E0],"parents":[2147483647,0,0],"right_children":[2,-1,-1],"split_conditions":[6.440094E1,-2.3521097E-2,2.863293E-2],"split_indices":[3,0,0],"split_type":[0,0,0],"sum_hessian":[2.8887365E0,1.6962879E0,1.1924485E0],"tree_param":{"num_deleted":"0","num_feature":"5","num_nodes":"3","size_leaf_vector":"1"}},{"base_weights":[-1.6102953E-4,-2.2507021E-2,2.9859046E-2],"categories":[],"categories_nodes":[],"categories_segments":[],"categories_sizes":[],"default_left":[0,0,0],"id":80,"left_children":[1,-1,-1],"loss_changes":[3.2673255E-1,0E0,0E0],"parents":[2147483647,0,0],"right_children":[2,-1,-1],"split_conditions":[6.3291763E1,-2.2507021E-2,2.9859046E-2],"split_indices":[0,0,0],"split_type":[0,0,0],"sum_hessian":[2.8624973E0,1.7737756E0,1.0887216E0],"tree_param":{"num_deleted":"0","num_feature":"5","num_nodes":"3","size_leaf_vector":"1"}},{"base_weights":[1.8009959E-3,-2.9069636E-2,2.313899E-2],"categories":[],"categories_nodes":[],"categories_segments":[],"categories_sizes":[],"default_left":[0,0,0],"id":81,"left_children":[1,-1,-1],"loss_changes":[3.2458928E-1,0E0,0E0],"parents":[2147483647,0,0],"right_children":[2,-1,-1],"split_conditions":[3.4767365E1,-2.9069636E-2,2.313899E-2],"split_indices":[2,0,0],"split_type":[0,0,0],"sum_hessian":[2.831857E0,1.1282723E0,1.7035848E0],"tree_param":{"num_deleted":"0","num_feature":"5","num_nodes":"3","size_leaf_vector":"1"}},{"base_weights":[5.171815E-5,-2.8425822E-2,2.2365086E-2],"categories":[],"categories_nodes":[],"categories_segments":[],"categories_sizes":[],"default_left":[0,0,0],"id":82,"left_children":[1,-1,-1],"loss_changes":[3.0548114E-1,0E0,0E0],"parents":[2147483647,0,0],"right_children":[2,-1,-1],"split_conditions":[4.186083E1,-2.8425822E-2,2.2365086E-2],"split_indices":[0,0,0],"split_type":[0,0,0],"sum_hessian":[2.8052695E0,1.1155477E0,1.6897218E0],"tree_param":{"num_deleted":"0","num_feature":"5","num_nodes":"3","size_leaf_vector":"1"}},{"base_weights":[-1.5840499E-3,-2.3470525E-2,2.784651E-2],"categories":[],"categories_nodes":[],"categories_segments":[],"categories_sizes":[],"default_left":[0,0,0],"id":83,"left_children":[1,-1,-1],"loss_changes":[3.1185722E-1,0E0,0E0],"parents":[2147483647,0,0],"right_children":[2,-1,-1],"split_conditions":[6.203577E1,-2.3470525E-2,2.784651E-2],"split_indices":[1,0,0],"split_type":[0,0,0],"sum_hessian":[2.7757301E0,1.6031417E0,1.1725885E0],"tree_param":{"num_deleted":"0","num_feature":"5","num_nodes":"3","size_leaf_vector":"1"}},{"base_weights":[-2.5306063E-4,-2.8736223E-2,2.197547E-2],"categories":[],"categories_nodes":[],"categories_segments":[],"categories_sizes":[],"default_left":[0,0,0],"id":84,"left_children":[1,-1,-1],"loss_changes":[2.9984584E-1,0E0,0E0],"parents":[2147483647,0,0],"right_children":[2,-1,-1],"split_conditions":[3.5768265E1,-2.8736223E-2,2.197547E-2],"split_indices":[3,0,0],"split_type":[0,0,0],"sum_hessian":[2.7472014E0,1.0590284E0,1.6881732E0],"tree_param":{"num_deleted":"0","num_feature":"5","num_nodes":"3","size_leaf_vector":"1"}},{"base_weights":[-2.0702865E-3,-2.7993117E-2,2.1794552E-2],"categories":[],"categories_nodes":[],"categories_segments":[],"categories_sizes":[],"default_left":[0,0,0],"id":85,"left_children":[1,-1,-1],"loss_changes":[2.885824E-1,0E0,0E0],"parents":[2147483647,0,0],"right_children":[2,-1,-1],"split_conditions":[3.4767365E1,-2.7993117E-2,2.1794552E-2],"split_indices":[2,0,0],"split_type":[0,0,0],"sum_hessian":[2.7225351E0,1.0827689E0,1.6397662E0],"tree_param":{"num_deleted":"0","num_feature":"5","num_nodes":"3","size_leaf_vector":"1"}},{"base_weights":[-3.572933E-3,-2.1797422E-2,2.8273528E-2],"categories":[],"categories_nodes":[],"categories_segments":[],"categories_sizes":[],"default_left":[0,0,0],"id":86,"left_children":[1,-1,-1],"loss_changes":[2.8867608E-1,0E0,0E0],"parents":[2147483647,0,0],"right_children":[2,-1,-1],"split_conditions":[6.3291763E1,-2.1797422E-2,2.8273528E-2],"split_indices":[0,0,0],"split_type":[0,0,0],"sum_hessian":[2.6987484E0,1.6796322E0,1.019116E0],"tree_param":{"num_deleted":"0","num_feature":"5","num_nodes":"3","size_leaf_vector":"1"}},{"base_weights":[-1.4536349E-3,-2.7939642E-2,2.2475354E-2],"categories":[],"categories_nodes":[],"categories_segments":[],"categories_sizes":[],"default_left":[0,0,0],"id":87,"left_children":[1,-1,-1],"loss_changes":[2.9363078E-1,0E0,0E0],"parents":[2147483647,0,0],"right_children":[2,-1,-1],"split_conditions":[3.2249233E1,-2.7939642E-2,2.2475354E-2],"split_indices":[1,0,0],"split_type":[0,0,0],"sum_hessian":[2.6714766E0,1.0931628E0,1.5783138E0],"tree_param":{"num_deleted":"0","num_feature":"5","num_nodes":"3","size_leaf_vector":"1"}},{"base_weights":[-2.8396118E-3,-2.235589E-2,2.6650876E-2],"categories":[],"categories_nodes":[],"categories_segments":[],"categories_sizes":[],"default_left":[0,0,0],"id":88,"left_children":[1,-1,-1],"loss_changes":[2.762432E-1,0E0,0E0],"parents":[2147483647,0,0],"right_children":[2,-1,-1],"split_conditions":[6.440094E1,-2.235589E-2,2.6650876E-2],"split_indices":[3,0,0],"split_type":[0,0,0],"sum_hessian":[2.6444306E0,1.546853E0,1.0975778E0],"tree_param":{"num_deleted":"0","num_feature":"5","num_nodes":"3","size_leaf_vector":"1"}},{"base_weights":[-1.3748145E-3,-2.7412295E-2,2.1529468E-2],"categories":[],"categories_nodes":[],"categories_segments":[],"categories_sizes":[],"default_left":[0,0,0],"id":89,"left_children":[1,-1,-1],"loss_changes":[2.73067E-1,0E0,0E0],"parents":[2147483647,0,0],"right_children":[2,-1,-1],"split_conditions":[4.186083E1,-2.7412295E-2,2.1529468E-2],"split_indices":[0,0,0],"split_type":[0,0,0],"sum_hessian":[2.6220567E0,1.0434161E0,1.5786407E0],"tree_param":{"num_deleted":"0","num_feature":"5","num_nodes":"3","size_leaf_vector":"1"}},{"base_weights":[-2.9055304E-3,-2.7216628E-2,2.1741183E-2],"categories":[],"categories_nodes":[],"categories_segments":[],"categories_sizes":[],"default_left":[0,0,0],"id":90,"left_children":[1,-1,-1],"loss_changes":[2.7247617E-1,0E0,0E0],"parents":[2147483647,0,0],"right_children":[2,-1,-1],"split_conditions":[3.2249233E1,-2.7216628E-2,2.1741183E-2],"split_indices":[1,0,0],"split_type":[0,0,0],"sum_hessian":[2.595648E0,1.0621746E0,1.5334735E0],"tree_param":{"num_deleted":"0","num_feature":"5","num_nodes":"3","size_leaf_vector":"1"}},{"base_weights":[-4.188629E-3,-2.7017936E-2,2.0841643E-2],"categories":[],"categories_nodes":[],"categories_segments":[],"categories_sizes":[],"default_left":[0,0,0],"id":91,"left_children":[1,-1,-1],"loss_changes":[2.5822473E-1,0E0,0E0],"parents":[2147483647,0,0],"right_children":[2,-1,-1],"split_conditions":[3.4767365E1,-2.7017936E-2,2.0841643E-2],"split_indices":[2,0,0],"split_type":[0,0,0],"sum_hessian":[2.5704942E0,1.0215839E0,1.5489101E0],"tree_param":{"num_deleted":"0","num_feature":"5","num_nodes":"3","size_leaf_vector":"1"}},{"base_weights":[-5.554206E-3,-2.363705E-2,2.3818126E-2],"categories":[],"categories_nodes":[],"categories_segments":[],"categories_sizes":[],"default_left":[0,0,0],"id":92,"left_children":[1,-1,-1],"loss_changes":[2.5596356E-1,0E0,0E0],"parents":[2147483647,0,0],"right_children":[2,-1,-1],"split_conditions":[5.354348E1,-2.363705E-2,2.3818126E-2],"split_indices":[0,0,0],"split_type":[0,0,0],"sum_hessian":[2.5490797E0,1.3247577E0,1.224322E0],"tree_param":{"num_deleted":"0","num_feature":"5","num_nodes":"3","size_leaf_vector":"1"}},{"base_weights":[-4.9843886E-3,-2.2209253E-2,2.5435967E-2],"categories":[],"categories_nodes":[],"categories_segments":[],"categories_sizes":[],"default_left":[0,0,0],"id":93,"left_children":[1,-1,-1],"loss_changes":[2.549301E-1,0E0,0E0],"parents":[2147483647,0,0],"right_children":[2,-1,-1],"split_conditions":[6.203577E1,-2.2209253E-2,2.5435967E-2],"split_indices":[1,0,0],"split_type":[0,0,0],"sum_hessian":[2.5243096E0,1.4522259E0,1.0720836E0],"tree_param":{"num_deleted":"0","num_feature":"5","num_nodes":"3","size_leaf_vector":"1"}},{"base_weights":[-3.5860117E-3,-2.5643213E-2,2.2077939E-2],"categories":[],"categories_nodes":[],"categories_segments":[],"categories_sizes":[],"default_left":[0,0,0],"id":94,"left_children":[1,-1,-1],"loss_changes":[2.5521493E-1,0E0,0E0],"parents":[2147483647,0,0],"right_children":[2,-1,-1],"split_conditions":[4.4122276E1,-2.5643213E-2,2.2077939E-2],"split_indices":[3,0,0],"split_type":[0,0,0],"sum_hessian":[2.5007985E0,1.1085775E0,1.392221E0],"tree_param":{"num_deleted":"0","num_feature":"5","num_nodes":"3","size_leaf_vector":"1"}},{"base_weights":[-4.2850045E-3,-2.3419214E-2,2.2620967E-2],"categories":[],"categories_nodes":[],"categories_segments":[],"categories_sizes":[],"default_left":[0,0,0],"id":95,"left_children":[1,-1,-1],"loss_changes":[2.3737198E-1,0E0,0E0],"parents":[2147483647,0,0],"right_children":[2,-1,-1],"split_conditions":[5.206724E1,-2.3419214E-2,2.2620967E-2],"split_indices":[0,0,0],"split_type":[0,0,0],"sum_hessian":[2.4796603E0,1.2333813E0,1.2462791E0],"tree_param":{"num_deleted":"0","num_feature":"5","num_nodes":"3","size_leaf_vector":"1"}},{"base_weights":[-4.1174237E-3,-2.6007503E-2,2.071335E-2],"categories":[],"categories_nodes":[],"categories_segments":[],"categories_sizes":[],"default_left":[0,0,0],"id":96,"left_children":[1,-1,-1],"loss_changes":[2.4077438E-1,0E0,0E0],"parents":[2147483647,0,0],"right_children":[2,-1,-1],"split_conditions":[3.2249233E1,-2.6007503E-2,2.071335E-2],"split_indices":[1,0,0],"split_type":[0,0,0],"sum_hessian":[2.4566247E0,1.0062748E0,1.4503499E0],"tree_param":{"num_deleted":"0","num_feature":"5","num_nodes":"3","size_leaf_vector":"1"}},{"base_weights":[-5.291637E-3,-2.1659395E-2,2.510034E-2],"categories":[],"categories_nodes":[],"categories_segments":[],"categories_sizes":[],"default_left":[0,0,0],"id":97,"left_children":[1,-1,-1],"loss_changes":[2.4035487E-1,0E0,0E0],"parents":[2147483647,0,0],"right_children":[2,-1,-1],"split_conditions":[6.440094E1,-2.1659395E-2,2.510034E-2],"split_indices":[3,0,0],"split_type":[0,0,0],"sum_hessian":[2.4343374E0,1.4191903E0,1.0151471E0],"tree_param":{"num_deleted":"0","num_feature":"5","num_nodes":"3","size_leaf_vector":"1"}},{"base_weights":[-3.7743566E-3,-2.4382437E-2,2.1268448E-2],"categories":[],"categories_nodes":[],"categories_segments":[],"categories_sizes":[],"default_left":[0,0,0],"id":98,"left_children":[1,-1,-1],"loss_changes":[2.2928901E-1,0E0,0E0],"parents":[2147483647,0,0],"right_children":[2,-1,-1],"split_conditions":[4.0499405E1,-2.4382437E-2,2.1268448E-2],"split_indices":[2,0,0],"split_type":[0,0,0],"sum_hessian":[2.4147062E0,1.085015E0,1.3296912E0],"tree_param":{"num_deleted":"0","num_feature":"5","num_nodes":"3","size_leaf_vector":"1"}},{"base_weights":[-4.3443413E-3,-2.2474248E-2,2.2780126E-2],"categories":[],"categories_nodes":[],"categories_segments":[],"categories_sizes":[],"default_left":[0,0,0],"id":99,"left_children":[1,-1,-1],"loss_changes":[2.2492476E-1,0E0,0E0],"parents":[2147483647,0,0],"right_children":[2,-1,-1],"split_conditions":[5.354348E1,-2.2474248E-2,2.2780126E-2],"split_indices":[0,0,0],"split_type":[0,0,0],"sum_hessian":[2.395485E0,1.2451932E0,1.1502918E0],"tree_param":{"num_deleted":"0","num_feature":"5","num_nodes":"3","size_leaf_vector":"1"}}]},"name":"gbtree"},"learner_model_param":{"base_score":"[5.018868E-1]","boost_from_average":"1","num_class":"0","num_feature":"5","num_target":"1"},"objective":{"name":"binary:logistic","reg_loss_param":{"scale_pos_weight":"1"}}},"version":[3,1,2]}